{"learner":{"attributes":{"scikit_learn":"{\"_estimator_type\": \"classifier\"}"},"feature_names":[],"feature_types":[],"gradient_booster":{"model":{"cats":{"enc":[],"feature_segments":[],"sorted_idx":[]},"gbtree_model_param":{"num_parallel_tree":"1","num_trees":"576"},"iteration_indptr":[0,6,12,18,24,30,36,42,48,54,60,66,72,78,84,90,96,102,108,114,120,126,132,138,144,150,156,162,168,174,180,186,192,198,204,210,216,222,228,234,240,246,252,258,264,270,276,282,288,294,300,306,312,318,324,330,336,342,348,354,360,366,372,378,384,390,396,402,408,414,420,426,432,438,444,450,456,462,468,474,480,486,492,498,504,510,516,522,528,534,540,546,552,558,564,570,576],"tree_info":[0,1,2,3,4,5,0,1,2,3,4,5,0,1,2,3,4,5,0,1,2,3,4,5,0,1,2,3,4,5,0,1,2,3,4,5,0,1,2,3,4,5,0,1,2,3,4,5,0,1,2,3,4,5,0,1,2,3,4,5,0,1,2,3,4,5,0,1,2,3,4,5,0,1,2,3,4,5,0,1,2,3,4,5,0,1,2,3,4,5,0,1,2,3,4,5,0,1,2,3,4,5,0,1,2,3,4,5,0,1,2,3,4,5,0,1,2,3,4,5,0,1,2,3,4,5,0,1,2,3,4,5,0,1,2,3,4,5,0,1,2,3,4,5,0,1,2,3,4,5,0,1,2,3,4,5,0,1,2,3,4,5,0,1,2,3,4,5,0,1,2,3,4,5,0,1,2,3,4,5,0,1,2,3,4,5,0,1,2,3,4,5,0,1,2,3,4,5,0,1,2,3,4,5,0,1,2,3,4,5,0,1,2,3,4,5,0,1,2,3,4,5,0,1,2,3,4,5,0,1,2,3,4,5,0,1,2,3,4,5,0,1,2,3,4,5,0,1,2,3,4,5,0,1,2,3,4,5,0,1,2,3,4,5,0,1,2,3,4,5,0,1,2,3,4,5,0,1,2,3,4,5,0,1,2,3,4,5,0,1,2,3,4,5,0,1,2,3,4,5,0,1,2,3,4,5,0,1,2,3,4,5,0,1,2,3,4,5,0,1,2,3,4,5,0,1,2,3,4,5,0,1,2,3,4,5,0,1,2,3,4,5,0,1,2,3,4,5,0,1,2,3,4,5,0,1,2,3,4,5,0,1,2,3,4,5,0,1,2,3,4,5,0,1,2,3,4,5,0,1,2,3,4,5,0,1,2,3,4,5,0,1,2,3,4,5,0,1,2,3,4,5,0,1,2,3,4,5,0,1,2,3,4,5,0,1,2,3,4,5,0,1,2,3,4,5,0,1,2,3,4,5,0,1,2,3,4,5,0,1,2,3,4,5,0,1,2,3,4,5,0,1,2,3,4,5,0,1,2,3,4,5,0,1,2,3,4,5,0,1,2,3,4,5,0,1,2,3,4,5,0,1,2,3,4,5,0,1,2,3,4,5,0,1,2,3,4,5,0,1,2,3,4,5,0,1,2,3,4,5,0,1,2,3,4,5,0,1,2,3,4,5,0,1,2,3,4,5,0,1,2,3,4,5,0,1,2,3,4,5,0,1,2,3,4,5,0,1,2,3,4,5,0,1,2,3,4,5,0,1,2,3,4,5,0,1,2,3,4,5,0,1,2,3,4,5],"trees":[{"base_weights":[-6.73426E-2,-5.056214E-1,8.954827E-1,4.011131E-1,-7.774703E-1,8.432344E-2,-4.313076E-2,7.9119956E-1,-2.5184193E-1,-8.049188E-1,-1.0906509E-2,7.1556464E-2,2.1317739E-2,2.1317739E-2,-4.7960408E-2,-2.8366685E-2,-6.66241E-2],"categories":[],"categories_nodes":[],"categories_segments":[],"categories_sizes":[],"default_left":[0,0,0,0,0,0,0,0,0,0,0,0,0,0,0,0,0],"id":0,"left_children":[1,3,5,7,9,-1,-1,11,13,15,-1,-1,-1,-1,-1,-1,-1],"loss_changes":[2.4648981E1,1.0181965E1,4.730356E0,2.719759E0,4.38385E-1,0E0,0E0,1.10375404E-1,9.633297E-1,7.7171326E-2,0E0,0E0,0E0,0E0,0E0,0E0,0E0],"parents":[2147483647,0,0,1,1,2,2,3,3,4,4,7,7,8,8,9,9],"right_children":[2,4,6,8,10,-1,-1,12,14,16,-1,-1,-1,-1,-1,-1,-1],"split_conditions":[6.6935486E-1,9.623074E-1,3E0,1.575E-1,1.38E2,8.432344E-2,-4.313076E-2,2.0638333E-1,4.1459632E-1,3.125E-1,-1.0906509E-2,7.1556464E-2,2.1317739E-2,2.1317739E-2,-4.7960408E-2,-2.8366685E-2,-6.66241E-2],"split_indices":[2,6,1,9,0,0,0,8,6,2,0,0,0,0,0,0,0],"split_type":[0,0,0,0,0,0,0,0,0,0,0,0,0,0,0,0,0],"sum_hessian":[5.633889E1,3.9041862E1,1.7297028E1,8.895615E0,3.0146248E1,1.5814425E1,1.4826024E0,5.4362087E0,3.4594057E0,2.8663647E1,1.4826024E0,3.9536064E0,1.4826024E0,1.4826024E0,1.9768032E0,2.471004E0,2.6192642E1],"tree_param":{"num_deleted":"0","num_feature":"10","num_nodes":"17","size_leaf_vector":"1"}},{"base_weights":[3.994933E-2,-3.3678824E-1,1.5133837E0,6.3100964E-2,-4.7992945E-1,-2.2840442E-2,1.6285469E-1,-1.0845378E-3,-4.247942E-2],"categories":[],"categories_nodes":[],"categories_segments":[],"categories_sizes":[],"default_left":[0,0,0,0,0,0,0,0,0],"id":1,"left_children":[1,3,5,-1,7,-1,-1,-1,-1],"loss_changes":[1.3869845E1,3.5984251E0,5.356838E0,0E0,4.2984867E-1,0E0,0E0,0E0,0E0],"parents":[2147483647,0,0,1,1,2,2,4,4],"right_children":[2,4,6,-1,8,-1,-1,-1,-1],"split_conditions":[5.344828E-1,6.166875E-2,3.888889E-1,6.3100964E-2,4.090909E-1,-2.2840442E-2,1.6285469E-1,-1.0845378E-3,-4.247942E-2],"split_indices":[4,8,2,0,2,0,0,0,0],"split_type":[0,0,0,0,0,0,0,0,0],"sum_hessian":[2.3068098E1,1.8985249E1,4.0828495E0,1.6331397E0,1.735211E1,1.0207124E0,3.062137E0,1.8372822E0,1.5514828E1],"tree_param":{"num_deleted":"0","num_feature":"10","num_nodes":"9","size_leaf_vector":"1"}},{"base_weights":[8.612514E-2,1.3811025E-1,-3.490841E-2],"categories":[],"categories_nodes":[],"categories_segments":[],"categories_sizes":[],"default_left":[0,0,0],"id":2,"left_children":[1,-1,-1],"loss_changes":[7.182071E0,0E0,0E0],"parents":[2147483647,0,0],"right_children":[2,-1,-1],"split_conditions":[4.2424244E-1,1.3811025E-1,-3.490841E-2],"split_indices":[2,0,0],"split_type":[0,0,0],"sum_hessian":[6.501468E0,1.0139905E0,5.487478E0],"tree_param":{"num_deleted":"0","num_feature":"10","num_nodes":"3","size_leaf_vector":"1"}},{"base_weights":[2.9650927E-2,-2.9451706E-2,5.8199234E-2],"categories":[],"categories_nodes":[],"categories_segments":[],"categories_sizes":[],"default_left":[0,0,0],"id":3,"left_children":[1,-1,-1],"loss_changes":[1.5631014E0,0E0,0E0],"parents":[2147483647,0,0],"right_children":[2,-1,-1],"split_conditions":[1.2378688E0,-2.9451706E-2,5.8199234E-2],"split_indices":[6,0,0],"split_type":[0,0,0],"sum_hessian":[3.666012E0,2.6358929E0,1.0301191E0],"tree_param":{"num_deleted":"0","num_feature":"10","num_nodes":"3","size_leaf_vector":"1"}},{"base_weights":[-6.687166E-2,1.4694196E-1,-2.3105519E-1,-4.507529E-1,5.554922E-1,-5.236926E-2,-4.6739478E-2,1.1095561E-1,1.05453715E-1,3.095083E-2,-3.8421664E-2,-2.4308974E-2,8.207886E-2],"categories":[],"categories_nodes":[],"categories_segments":[],"categories_sizes":[],"default_left":[0,0,0,0,0,0,0,0,0,0,0,0,0],"id":4,"left_children":[1,-1,3,5,7,9,-1,-1,11,-1,-1,-1,-1],"loss_changes":[1.2216784E1,0E0,6.4060483E0,1.4795637E0,2.931629E0,1.7318671E0,0E0,0E0,2.7304265E0,0E0,0E0,0E0,0E0],"parents":[2147483647,0,0,2,2,3,3,4,4,5,5,8,8],"right_children":[2,-1,4,6,8,10,-1,-1,12,-1,-1,-1,-1],"split_conditions":[4E0,1.4694196E-1,4.390244E-1,1.5819085E-1,5.344828E-1,1.23E2,-4.6739478E-2,1.1095561E-1,6.7741936E-1,3.095083E-2,-3.8421664E-2,-2.4308974E-2,8.207886E-2],"split_indices":[0,0,4,8,4,0,0,0,4,0,0,0,0],"split_type":[0,0,0,0,0,0,0,0,0,0,0,0,0],"sum_hessian":[3.6729923E1,2.1074545E0,3.4622467E1,2.739691E1,7.2255583E0,7.2255583E0,2.017135E1,1.8063896E0,5.419169E0,3.6127791E0,3.6127791E0,4.214909E0,1.2042598E0],"tree_param":{"num_deleted":"0","num_feature":"10","num_nodes":"13","size_leaf_vector":"1"}},{"base_weights":[-7.592965E-3,5.233338E-1,-3.589342E-1,1.3184178E0,-4.3827042E-2,-5.524497E-1,5.877166E-1,-3.658868E-2,1.6477765E-1,-4.779603E-2,-6.619948E-3,1.1979434E-1,-3.351366E-2],"categories":[],"categories_nodes":[],"categories_segments":[],"categories_sizes":[],"default_left":[0,0,0,0,0,0,0,0,0,0,0,0,0],"id":5,"left_children":[1,3,5,7,-1,9,11,-1,-1,-1,-1,-1,-1],"loss_changes":[7.557173E0,1.4467543E1,4.788506E0,1.352264E1,0E0,3.8908148E-1,4.858287E0,0E0,0E0,0E0,0E0,0E0,0E0],"parents":[2147483647,0,0,1,1,2,2,3,3,5,5,6,6],"right_children":[2,4,6,8,-1,10,12,-1,-1,-1,-1,-1,-1],"split_conditions":[8.8E-2,6.6935486E-1,1.4026444E0,4E0,-4.3827042E-2,5E0,1.58E2,-3.658868E-2,1.6477765E-1,-4.779603E-2,-6.619948E-3,1.1979434E-1,-3.351366E-2],"split_indices":[7,2,7,0,0,1,0,0,0,0,0,0,0],"split_type":[0,0,0,0,0,0,0,0,0,0,0,0,0],"sum_hessian":[3.850612E1,1.5139157E1,2.336696E1,8.556915E0,6.582242E0,1.9746727E1,3.6202333E0,2.632897E0,5.924018E0,1.7772055E1,1.9746727E0,1.6455605E0,1.9746727E0],"tree_param":{"num_deleted":"0","num_feature":"10","num_nodes":"13","size_leaf_vector":"1"}},{"base_weights":[-1.7255789E-2,-4.3193793E-1,8.5143566E-1,-7.190849E-1,4.4433865E-1,7.920334E-2,-4.2171344E-2,-7.7402854E-1,5.878176E-3,7.762701E-1,-1.12833105E-1,-2.7267551E-2,-6.403811E-2,6.9914564E-2,1.9973822E-2,1.7428482E-2,-4.246979E-2],"categories":[],"categories_nodes":[],"categories_segments":[],"categories_sizes":[],"default_left":[0,0,0,0,0,0,0,0,0,0,0,0,0,0,0,0,0],"id":6,"left_children":[1,3,5,7,9,-1,-1,11,-1,13,15,-1,-1,-1,-1,-1,-1],"loss_changes":[2.2221918E1,1.0819084E1,4.3318663E0,1.4421158E0,2.1066122E0,0E0,0E0,6.8977356E-2,0E0,1.4016914E-1,7.997771E-1,0E0,0E0,0E0,0E0,0E0,0E0],"parents":[2147483647,0,0,1,1,2,2,3,3,4,4,7,7,9,9,10,10],"right_children":[2,4,6,8,10,-1,-1,12,-1,14,16,-1,-1,-1,-1,-1,-1],"split_conditions":[6.6935486E-1,1E0,3E0,1.38E2,2.1621622E-1,7.920334E-2,-4.2171344E-2,3.125E-1,5.878176E-3,2.0638333E-1,8E1,-2.7267551E-2,-6.403811E-2,6.9914564E-2,1.9973822E-2,1.7428482E-2,-4.246979E-2],"split_indices":[2,3,1,0,4,0,0,2,0,8,0,0,0,0,0,0,0],"split_type":[0,0,0,0,0,0,0,0,0,0,0,0,0,0,0,0,0],"sum_hessian":[5.966708E1,4.072784E1,1.893924E1,3.0810831E1,9.917011E0,1.7465088E1,1.4741513E0,2.883524E1,1.9755912E0,5.9682393E0,3.9487722E0,2.458322E0,2.6376917E1,4.478145E0,1.4900942E0,2.4720912E0,1.476681E0],"tree_param":{"num_deleted":"0","num_feature":"10","num_nodes":"17","size_leaf_vector":"1"}},{"base_weights":[-5.660463E-3,-3.3334485E-1,1.2098744E0,8.920072E-1,-4.2446755E-2,-2.2896215E-2,1.3035356E-1,1.5059153E-2,9.337024E-2],"categories":[],"categories_nodes":[],"categories_segments":[],"categories_sizes":[],"default_left":[0,0,0,0,0,0,0,0,0],"id":7,"left_children":[1,3,5,7,-1,-1,-1,-1,-1],"loss_changes":[1.0052974E1,5.2747107E0,3.8307915E0,3.8582826E-1,0E0,0E0,0E0,0E0,0E0],"parents":[2147483647,0,0,1,1,2,2,3,3],"right_children":[2,4,6,8,-1,-1,-1,-1,-1],"split_conditions":[5.344828E-1,9.729238E-2,3.888889E-1,4.4444445E-1,-4.2446755E-2,-2.2896215E-2,1.3035356E-1,1.5059153E-2,9.337024E-2],"split_indices":[4,8,2,2,0,0,0,0,0],"split_type":[0,0,0,0,0,0,0,0,0],"sum_hessian":[2.322642E1,1.886622E1,4.3602004E0,2.1273835E0,1.6738836E1,1.0245463E0,3.3356543E0,1.0712636E0,1.05612E0],"tree_param":{"num_deleted":"0","num_feature":"10","num_nodes":"9","size_leaf_vector":"1"}},{"base_weights":[4.0323377E-2,1.3657093E-1,-3.5417393E-2],"categories":[],"categories_nodes":[],"categories_segments":[],"categories_sizes":[],"default_left":[0,0,0],"id":8,"left_children":[1,-1,-1],"loss_changes":[7.2929525E0,0E0,0E0],"parents":[2147483647,0,0],"right_children":[2,-1,-1],"split_conditions":[4.050633E-1,1.3657093E-1,-3.5417393E-2],"split_indices":[2,0,0],"split_type":[0,0,0],"sum_hessian":[7.1193123E0,1.03022E0,6.0890923E0],"tree_param":{"num_deleted":"0","num_feature":"10","num_nodes":"3","size_leaf_vector":"1"}},{"base_weights":[4.8482448E-2,-2.9020224E-2,5.9486415E-2],"categories":[],"categories_nodes":[],"categories_segments":[],"categories_sizes":[],"default_left":[0,0,0],"id":9,"left_children":[1,-1,-1],"loss_changes":[1.5583528E0,0E0,0E0],"parents":[2147483647,0,0],"right_children":[2,-1,-1],"split_conditions":[1.2562213E0,-2.9020224E-2,5.9486415E-2],"split_indices":[6,0,0],"split_type":[0,0,0],"sum_hessian":[3.5080385E0,2.5044672E0,1.0035713E0],"tree_param":{"num_deleted":"0","num_feature":"10","num_nodes":"3","size_leaf_vector":"1"}},{"base_weights":[3.0666893E-2,1.4274067E-1,-1.9141558E-1,-4.3783832E-1,5.8791465E-1,-7.039145E-2,-4.603277E-2,1.0142691E-1,2.0623064E-1,2.8559702E-2,-3.836624E-2,-2.4306573E-2,9.170462E-2],"categories":[],"categories_nodes":[],"categories_segments":[],"categories_sizes":[],"default_left":[0,0,0,0,0,0,0,0,0,0,0,0,0],"id":10,"left_children":[1,-1,3,5,7,9,-1,-1,11,-1,-1,-1,-1],"loss_changes":[1.5220799E1,0E0,6.943447E0,1.3255811E0,2.0198429E0,1.6578819E0,0E0,0E0,3.6205626E0,0E0,0E0,0E0,0E0],"parents":[2147483647,0,0,2,2,3,3,4,4,5,5,8,8],"right_children":[2,-1,4,6,8,10,-1,-1,12,-1,-1,-1,-1],"split_conditions":[4E0,1.4274067E-1,4.390244E-1,1.5819085E-1,5.344828E-1,1.23E2,-4.603277E-2,1.0142691E-1,6.7741936E-1,2.8559702E-2,-3.836624E-2,-2.4306573E-2,9.170462E-2],"split_indices":[0,0,4,8,4,0,0,0,4,0,0,0,0],"split_type":[0,0,0,0,0,0,0,0,0,0,0,0,0],"sum_hessian":[3.720663E1,3.391635E0,3.3815E1,2.6024338E1,7.7906594E0,7.5010486E0,1.8523289E1,1.9662834E0,5.824376E0,3.7313106E0,3.769738E0,4.214495E0,1.6098808E0],"tree_param":{"num_deleted":"0","num_feature":"10","num_nodes":"13","size_leaf_vector":"1"}},{"base_weights":[2.9775636E-2,-3.1264964E-1,5.1764923E-1,-5.4419965E-1,6.7072296E-1,-4.483666E-2,1.4216323E-1,-4.7234662E-2,-1.2201694E-3,1.1625859E-1,-3.275095E-2],"categories":[],"categories_nodes":[],"categories_segments":[],"categories_sizes":[],"default_left":[0,0,0,0,0,0,0,0,0,0,0],"id":11,"left_children":[1,3,5,7,9,-1,-1,-1,-1,-1,-1],"loss_changes":[6.8749676E0,5.883313E0,2.400842E1,4.842105E-1,4.8774047E0,0E0,0E0,0E0,0E0,0E0,0E0],"parents":[2147483647,0,0,1,1,2,2,3,3,4,4],"right_children":[2,4,6,8,10,-1,-1,-1,-1,-1,-1],"split_conditions":[5E-1,1.4026444E0,1.8E1,5E0,1.58E2,-4.483666E-2,1.4216323E-1,-4.7234662E-2,-1.2201694E-3,1.1625859E-1,-3.275095E-2],"split_indices":[9,7,0,1,0,0,0,0,0,0,0],"split_type":[0,0,0,0,0,0,0,0,0,0,0],"sum_hessian":[3.9183853E1,2.3234997E1,1.5948856E1,1.9168161E1,4.066836E0,8.891891E0,7.056966E0,1.7520508E1,1.6476537E0,2.1579862E0,1.9088495E0],"tree_param":{"num_deleted":"0","num_feature":"10","num_nodes":"11","size_leaf_vector":"1"}},{"base_weights":[2.5532741E-2,-3.6698034E-1,7.9890877E-1,6.905574E-2,-5.917604E-1,7.4455105E-2,-4.1200943E-2,3.959142E-2,-6.9324297E-1,-1.8667597E-2,-5.9302554E-2],"categories":[],"categories_nodes":[],"categories_segments":[],"categories_sizes":[],"default_left":[0,0,0,0,0,0,0,0,0,0,0],"id":12,"left_children":[1,3,5,-1,7,-1,-1,-1,9,-1,-1],"loss_changes":[1.8005064E1,1.1402626E1,3.9350405E0,0E0,4.0811167E0,0E0,0E0,0E0,5.211487E-1,0E0,0E0],"parents":[2147483647,0,0,1,1,2,2,4,4,8,8],"right_children":[2,4,6,-1,8,-1,-1,-1,10,-1,-1],"split_conditions":[6.6935486E-1,1.265E-1,3E0,6.905574E-2,4.8127538E-1,7.4455105E-2,-4.1200943E-2,3.959142E-2,3.2894737E-1,-1.8667597E-2,-5.9302554E-2],"split_indices":[2,9,1,0,6,0,0,0,2,0,0],"split_type":[0,0,0,0,0,0,0,0,0,0,0],"sum_hessian":[5.734717E1,3.8389008E1,1.8958166E1,5.4920278E0,3.2896976E1,1.7495155E1,1.4630113E0,2.4787238E0,3.0418255E1,3.4308298E0,2.6987425E1],"tree_param":{"num_deleted":"0","num_feature":"10","num_nodes":"11","size_leaf_vector":"1"}},{"base_weights":[5.7579152E-2,7.40538E-1,-4.1598186E-2,1.0201524E0,-3.0309424E-2,-2.28033E-2,1.2051356E0,4.495169E-3,1.14982784E-1],"categories":[],"categories_nodes":[],"categories_segments":[],"categories_sizes":[],"default_left":[0,0,0,0,0,0,0,0,0],"id":13,"left_children":[1,3,-1,5,-1,-1,7,-1,-1],"loss_changes":[1.0218854E1,4.0910277E0,0E0,2.6953163E0,0E0,0E0,2.2458715E0,0E0,0E0],"parents":[2147483647,0,0,1,1,3,3,6,6],"right_children":[2,4,-1,6,-1,-1,8,-1,-1],"split_conditions":[5.4545456E-1,7.5562E-1,-4.1598186E-2,3.655914E-1,-3.0309424E-2,-2.28033E-2,4.993468E-1,4.495169E-3,1.14982784E-1],"split_indices":[2,7,0,2,0,0,6,0,0],"split_type":[0,0,0,0,0,0,0,0,0],"sum_hessian":[2.3930557E1,1.0835464E1,1.3095094E1,8.740784E0,2.094679E0,1.0178926E0,7.7228913E0,1.5069218E0,6.2159696E0],"tree_param":{"num_deleted":"0","num_feature":"10","num_nodes":"9","size_leaf_vector":"1"}},{"base_weights":[5.5517465E-2,-3.4981597E-2,1.1640848E-1],"categories":[],"categories_nodes":[],"categories_segments":[],"categories_sizes":[],"default_left":[0,0,0],"id":14,"left_children":[1,-1,-1],"loss_changes":[6.0857735E0,0E0,0E0],"parents":[2147483647,0,0],"right_children":[2,-1,-1],"split_conditions":[4E0,-3.4981597E-2,1.1640848E-1],"split_indices":[1,0,0],"split_type":[0,0,0],"sum_hessian":[6.901263E0,5.612652E0,1.2886114E0],"tree_param":{"num_deleted":"0","num_feature":"10","num_nodes":"3","size_leaf_vector":"1"}},{"base_weights":[3.5724897E-2,-2.9352508E-2,5.95307E-2],"categories":[],"categories_nodes":[],"categories_segments":[],"categories_sizes":[],"default_left":[0,0,0],"id":15,"left_children":[1,-1,-1],"loss_changes":[1.5889901E0,0E0,0E0],"parents":[2147483647,0,0],"right_children":[2,-1,-1],"split_conditions":[1.2790579E0,-2.9352508E-2,5.95307E-2],"split_indices":[6,0,0],"split_type":[0,0,0],"sum_hessian":[3.613729E0,2.611517E0,1.002212E0],"tree_param":{"num_deleted":"0","num_feature":"10","num_nodes":"3","size_leaf_vector":"1"}},{"base_weights":[-6.1273832E-2,1.22897185E-1,-2.907476E-1,-3.7795308E-1,7.1570545E-2,-4.5207277E-2,-1.2971446E-1,-3.322556E-2,2.2011885E-2],"categories":[],"categories_nodes":[],"categories_segments":[],"categories_sizes":[],"default_left":[0,0,0,0,0,0,0,0,0],"id":16,"left_children":[1,-1,3,5,-1,-1,7,-1,-1],"loss_changes":[1.2784258E1,0E0,3.4671211E0,1.2691569E0,0E0,0E0,1.7006398E0,0E0,0E0],"parents":[2147483647,0,0,2,2,3,3,6,6],"right_children":[2,-1,4,6,-1,-1,8,-1,-1],"split_conditions":[4E0,1.22897185E-1,6.7741936E-1,6.77686E-1,7.1570545E-2,-4.5207277E-2,2.2857143E-1,-3.322556E-2,2.2011885E-2],"split_indices":[0,0,4,3,0,0,4,0,0],"split_type":[0,0,0,0,0,0,0,0,0],"sum_hessian":[3.265581E1,3.3864465E0,2.9269363E1,2.789812E1,1.3712428E0,1.5178906E1,1.2719214E1,7.442898E0,5.2763166E0],"tree_param":{"num_deleted":"0","num_feature":"10","num_nodes":"9","size_leaf_vector":"1"}},{"base_weights":[4.7569036E-2,5.6605977E-1,-3.044644E-1,-4.1017402E-2,1.0880404E0,-5.364829E-1,6.3244635E-1,1.24380596E-1,-3.4582134E-2,-4.66477E-2,-1.8166518E-3,1.0622366E-1,-3.2100793E-2],"categories":[],"categories_nodes":[],"categories_segments":[],"categories_sizes":[],"default_left":[0,0,0,0,0,0,0,0,0,0,0,0,0],"id":17,"left_children":[1,3,5,-1,7,9,11,-1,-1,-1,-1,-1,-1],"loss_changes":[7.2603173E0,9.597529E0,5.5084496E0,0E0,8.5758095E0,4.5616436E-1,4.2552843E0,0E0,0E0,0E0,0E0,0E0,0E0],"parents":[2147483647,0,0,1,1,2,2,4,4,5,5,6,6],"right_children":[2,4,6,-1,8,10,12,-1,-1,-1,-1,-1,-1],"split_conditions":[8.8E-2,1.4E1,1.4026444E0,-4.1017402E-2,6.6935486E-1,5E0,1.58E2,1.24380596E-1,-3.4582134E-2,-4.66477E-2,-1.8166518E-3,1.0622366E-1,-3.2100793E-2],"split_indices":[7,0,7,0,2,1,0,0,0,0,0,0,0],"split_type":[0,0,0,0,0,0,0,0,0,0,0,0,0],"sum_hessian":[3.7832653E1,1.5053382E1,2.277927E1,4.9144444E0,1.0138937E1,1.8600416E1,4.1788535E0,7.740158E0,2.3987794E0,1.6929522E1,1.670895E0,2.3282173E0,1.8506362E0],"tree_param":{"num_deleted":"0","num_feature":"10","num_nodes":"13","size_leaf_vector":"1"}},{"base_weights":[-4.9346825E-3,-3.89897E-1,7.4990535E-1,3.109926E-1,-6.48706E-1,7.034871E-2,-4.0224213E-2,6.978194E-1,-3.0116755E-1,-7.0640254E-1,6.221814E-3,6.383956E-2,1.5884344E-2,2.0197697E-2,-4.9133863E-2,-2.5729332E-2,-5.8596767E-2],"categories":[],"categories_nodes":[],"categories_segments":[],"categories_sizes":[],"default_left":[0,0,0,0,0,0,0,0,0,0,0,0,0,0,0,0,0],"id":18,"left_children":[1,3,5,7,9,-1,-1,11,13,15,-1,-1,-1,-1,-1,-1,-1],"loss_changes":[1.6651804E1,7.084239E0,3.5811405E0,2.7931676E0,1.2299814E0,0E0,0E0,1.9093561E-1,1.0080571E0,2.5820732E-2,0E0,0E0,0E0,0E0,0E0,0E0,0E0],"parents":[2147483647,0,0,1,1,2,2,3,3,4,4,7,7,8,8,9,9],"right_children":[2,4,6,8,10,-1,-1,12,14,16,-1,-1,-1,-1,-1,-1,-1],"split_conditions":[6.6935486E-1,9.623074E-1,3E0,2.1621622E-1,1.38E2,7.034871E-2,-4.0224213E-2,2.0635729E-1,6.8E1,3.125E-1,6.221814E-3,6.383956E-2,1.5884344E-2,2.0197697E-2,-4.9133863E-2,-2.5729332E-2,-5.8596767E-2],"split_indices":[2,6,1,4,0,0,0,8,0,2,0,0,0,0,0,0,0],"split_type":[0,0,0,0,0,0,0,0,0,0,0,0,0,0,0,0,0],"sum_hessian":[5.5298225E1,3.694172E1,1.8356506E1,9.907971E0,2.7033747E1,1.6907352E1,1.4491549E0,5.9856696E0,3.9223015E0,2.5070312E1,1.9634356E0,4.4870305E0,1.4986393E0,1.4864659E0,2.4358356E0,2.436289E0,2.2634022E1],"tree_param":{"num_deleted":"0","num_feature":"10","num_nodes":"17","size_leaf_vector":"1"}},{"base_weights":[2.6992576E-2,-2.7175102E-1,9.5910627E-1,8.078354E-1,-4.6571466E-1,1.2706307E0,2.1830855E-3,-2.3706168E-2,1.18245885E-1,-4.163294E-2,7.7870436E-4,1.0241873E-2,1.315265E-1],"categories":[],"categories_nodes":[],"categories_segments":[],"categories_sizes":[],"default_left":[0,0,0,0,0,0,0,0,0,0,0,0,0],"id":19,"left_children":[1,3,5,7,9,11,-1,-1,-1,-1,-1,-1,-1],"loss_changes":[7.068251E0,4.4161263E0,1.7518454E0,2.8831205E0,4.4686747E-1,1.7482882E0,0E0,0E0,0E0,0E0,0E0,0E0,0E0],"parents":[2147483647,0,0,1,1,2,2,3,3,4,4,5,5],"right_children":[2,4,6,8,10,12,-1,-1,-1,-1,-1,-1,-1],"split_conditions":[5.344828E-1,9.729238E-2,2.0572083E-1,4.8127538E-1,8.095238E-1,1.9569E-1,2.1830855E-3,-2.3706168E-2,1.18245885E-1,-4.163294E-2,7.7870436E-4,1.0241873E-2,1.315265E-1],"split_indices":[4,8,8,6,3,8,0,0,0,0,0,0,0],"split_type":[0,0,0,0,0,0,0,0,0,0,0,0,0],"sum_hessian":[2.3447102E1,1.829272E1,5.154382E0,2.3039937E0,1.5988727E1,3.5904288E0,1.5639534E0,1.0810049E0,1.2229887E0,1.4254298E1,1.7344278E0,1.2152052E0,2.3752236E0],"tree_param":{"num_deleted":"0","num_feature":"10","num_nodes":"13","size_leaf_vector":"1"}},{"base_weights":[-7.4191876E-2,9.597031E-2,-3.522733E-2],"categories":[],"categories_nodes":[],"categories_segments":[],"categories_sizes":[],"default_left":[0,0,0],"id":20,"left_children":[1,-1,-1],"loss_changes":[4.238339E0,0E0,0E0],"parents":[2147483647,0,0],"right_children":[2,-1,-1],"split_conditions":[3.888889E-1,9.597031E-2,-3.522733E-2],"split_indices":[2,0,0],"split_type":[0,0,0],"sum_hessian":[6.954587E0,1.044495E0,5.910092E0],"tree_param":{"num_deleted":"0","num_feature":"10","num_nodes":"3","size_leaf_vector":"1"}},{"base_weights":[4.1638974E-2,-2.9079653E-2,5.7943165E-2],"categories":[],"categories_nodes":[],"categories_segments":[],"categories_sizes":[],"default_left":[0,0,0],"id":21,"left_children":[1,-1,-1],"loss_changes":[1.525456E0,0E0,0E0],"parents":[2147483647,0,0],"right_children":[2,-1,-1],"split_conditions":[1.2996075E0,-2.9079653E-2,5.7943165E-2],"split_indices":[6,0,0],"split_type":[0,0,0],"sum_hessian":[3.5637655E0,2.529876E0,1.0338897E0],"tree_param":{"num_deleted":"0","num_feature":"10","num_nodes":"3","size_leaf_vector":"1"}},{"base_weights":[4.693494E-2,1.12775154E-1,-1.7445703E-1,1.4066403E-1,-4.419371E-2,5.3881645E-1,-1.808199E-1,7.599393E-2,-2.4151555E-3,8.616276E-3,-3.9474115E-2],"categories":[],"categories_nodes":[],"categories_segments":[],"categories_sizes":[],"default_left":[0,0,0,0,0,0,0,0,0,0,0],"id":22,"left_children":[1,-1,3,5,-1,7,9,-1,-1,-1,-1],"loss_changes":[1.0961096E1,0E0,3.8225927E0,2.3941908E0,0E0,1.9625609E0,1.0160868E0,0E0,0E0,0E0,0E0],"parents":[2147483647,0,0,2,2,3,3,5,5,6,6],"right_children":[2,-1,4,6,-1,8,10,-1,-1,-1,-1],"split_conditions":[4E0,1.12775154E-1,6.0818714E-1,1.9916166E-1,-4.419371E-2,7.758621E-1,5.0288E-1,7.599393E-2,-2.4151555E-3,8.616276E-3,-3.9474115E-2],"split_indices":[0,0,2,8,0,3,7,0,0,0,0],"split_type":[0,0,0,0,0,0,0,0,0,0,0],"sum_hessian":[3.451562E1,4.073603E0,3.0442017E1,1.6943508E1,1.3498509E1,7.2671885E0,9.676319E0,3.830326E0,3.4368625E0,5.3728547E0,4.3034644E0],"tree_param":{"num_deleted":"0","num_feature":"10","num_nodes":"11","size_leaf_vector":"1"}},{"base_weights":[-7.790494E-3,-3.3862072E-1,4.6058312E-1,-5.276093E-1,3.2942283E-1,-4.3009933E-2,1.1021114E-1,-4.601459E-2,-7.1822307E-3,-3.237451E-2,8.337841E-1,8.5319355E-2,1.0876051E-2],"categories":[],"categories_nodes":[],"categories_segments":[],"categories_sizes":[],"default_left":[0,0,0,0,0,0,0,0,0,0,0,0,0],"id":23,"left_children":[1,3,5,7,9,-1,-1,-1,-1,-1,11,-1,-1],"loss_changes":[6.158474E0,3.1127927E0,1.5807617E1,3.3431625E-1,2.4659734E0,0E0,0E0,0E0,0E0,0E0,4.6145177E-1,0E0,0E0],"parents":[2147483647,0,0,1,1,2,2,3,3,4,4,10,10],"right_children":[2,4,6,8,10,-1,-1,-1,-1,-1,12,-1,-1],"split_conditions":[5E-1,1.23E2,1.8E1,5E0,3E0,-4.3009933E-2,1.1021114E-1,-4.601459E-2,-7.1822307E-3,-3.237451E-2,1.3546338E0,8.5319355E-2,1.0876051E-2],"split_indices":[9,0,0,1,1,0,0,0,0,0,6,0,0],"split_type":[0,0,0,0,0,0,0,0,0,0,0,0,0],"sum_hessian":[3.7737835E1,2.2278622E1,1.5459215E1,1.7529709E1,4.748913E0,7.600208E0,7.859008E0,1.5528711E1,2.0009975E0,2.0144668E0,2.7344458E0,1.6544448E0,1.0800011E0],"tree_param":{"num_deleted":"0","num_feature":"10","num_nodes":"13","size_leaf_vector":"1"}},{"base_weights":[2.4187436E-2,-3.568319E-1,7.2298384E-1,4.0990064E-1,-6.606823E-1,6.7150146E-2,-3.931543E-2,5.9861743E-1,-4.1278318E-2,-7.208874E-1,6.6894805E-3,5.888502E-2,-9.63826E-3,-2.4745533E-2,-6.0045417E-2],"categories":[],"categories_nodes":[],"categories_segments":[],"categories_sizes":[],"default_left":[0,0,0,0,0,0,0,0,0,0,0,0,0,0,0],"id":24,"left_children":[1,3,5,7,9,-1,-1,11,-1,13,-1,-1,-1,-1,-1],"loss_changes":[1.5571493E1,9.098049E0,3.3278303E0,2.2956986E0,1.293416E0,0E0,0E0,1.0680058E0,0E0,8.0103874E-2,0E0,0E0,0E0,0E0,0E0],"parents":[2147483647,0,0,1,1,2,2,3,3,4,4,7,7,9,9],"right_children":[2,4,6,8,10,-1,-1,12,-1,14,-1,-1,-1,-1,-1],"split_conditions":[6.6935486E-1,9.623074E-1,3E0,1.6325E-1,1.38E2,6.7150146E-2,-3.931543E-2,9.3E1,-4.1278318E-2,3.125E-1,6.6894805E-3,5.888502E-2,-9.63826E-3,-2.4745533E-2,-6.0045417E-2],"split_indices":[2,6,1,9,0,0,0,0,0,2,0,0,0,0,0],"split_type":[0,0,0,0,0,0,0,0,0,0,0,0,0,0,0],"sum_hessian":[5.6514458E1,3.6889687E1,1.9624771E1,1.037089E1,2.6518799E1,1.8190216E1,1.4345554E0,8.908567E0,1.4623221E0,2.456337E1,1.9554282E0,7.4592404E0,1.4493269E0,2.4205117E0,2.2142859E1],"tree_param":{"num_deleted":"0","num_feature":"10","num_nodes":"15","size_leaf_vector":"1"}},{"base_weights":[2.8597122E-2,-2.6819867E-1,9.428914E-1,7.5760746E-1,-4.617672E-1,1.9995868E-3,1.24783E0,-2.3498759E-2,1.08775295E-1,2.2916005E-3,-4.140583E-2,1.3400288E-1,7.6204445E-3],"categories":[],"categories_nodes":[],"categories_segments":[],"categories_sizes":[],"default_left":[0,0,0,0,0,0,0,0,0,0,0,0,0],"id":25,"left_children":[1,3,5,7,9,-1,11,-1,-1,-1,-1,-1,-1],"loss_changes":[6.84933E0,4.1484103E0,1.6982503E0,2.5613885E0,4.7227097E-1,0E0,2.114037E0,0E0,0E0,0E0,0E0,0E0,0E0],"parents":[2147483647,0,0,1,1,2,2,3,3,4,4,6,6],"right_children":[2,4,6,8,10,-1,12,-1,-1,-1,-1,-1,-1],"split_conditions":[5.344828E-1,9.729238E-2,1.9718063E-1,4.8127538E-1,1.21E-1,1.9995868E-3,2.0572083E-1,-2.3498759E-2,1.08775295E-1,2.2916005E-3,-4.140583E-2,1.3400288E-1,7.6204445E-3],"split_indices":[4,8,8,6,9,0,8,0,0,0,0,0,0],"split_type":[0,0,0,0,0,0,0,0,0,0,0,0,0],"sum_hessian":[2.3308962E1,1.8130234E1,5.1787276E0,2.4155037E0,1.571473E1,1.5612307E0,3.617497E0,1.0660806E0,1.3494232E0,1.6552585E0,1.4059471E1,2.3085318E0,1.3089652E0],"tree_param":{"num_deleted":"0","num_feature":"10","num_nodes":"13","size_leaf_vector":"1"}},{"base_weights":[6.446543E-2,1.3429017E-1,-3.5045195E-2],"categories":[],"categories_nodes":[],"categories_segments":[],"categories_sizes":[],"default_left":[0,0,0],"id":26,"left_children":[1,-1,-1],"loss_changes":[7.0413117E0,0E0,0E0],"parents":[2147483647,0,0],"right_children":[2,-1,-1],"split_conditions":[3.809524E-1,1.3429017E-1,-3.5045195E-2],"split_indices":[2,0,0],"split_type":[0,0,0],"sum_hessian":[6.773957E0,1.0525964E0,5.7213607E0],"tree_param":{"num_deleted":"0","num_feature":"10","num_nodes":"3","size_leaf_vector":"1"}},{"base_weights":[5.867267E-2,-2.8629845E-2,5.83069E-2],"categories":[],"categories_nodes":[],"categories_segments":[],"categories_sizes":[],"default_left":[0,0,0],"id":27,"left_children":[1,-1,-1],"loss_changes":[1.4963661E0,0E0,0E0],"parents":[2147483647,0,0],"right_children":[2,-1,-1],"split_conditions":[1.3546338E0,-2.8629845E-2,5.83069E-2],"split_indices":[6,0,0],"split_type":[0,0,0],"sum_hessian":[3.426002E0,2.4001563E0,1.0258458E0],"tree_param":{"num_deleted":"0","num_feature":"10","num_nodes":"3","size_leaf_vector":"1"}},{"base_weights":[7.2502536E-3,-2.5933138E-1,9.936075E-1,-4.3846148E-1,4.597183E-1,1.0741722E-1,-4.1456535E-3,-1.4003384E-1,-4.4238504E-2,8.4585465E-2,1.0764308E-1,-2.7571375E-2,3.2586623E-2,-3.052847E-2,3.6350776E-2],"categories":[],"categories_nodes":[],"categories_segments":[],"categories_sizes":[],"default_left":[0,0,0,0,0,0,0,0,0,0,0,0,0,0,0],"id":28,"left_children":[1,3,5,7,9,-1,-1,11,-1,-1,13,-1,-1,-1,-1],"loss_changes":[9.29243E0,3.7877584E0,2.8132453E0,7.018218E-1,1.157205E0,0E0,0E0,9.9854714E-1,0E0,0E0,1.0071445E0,0E0,0E0,0E0,0E0],"parents":[2147483647,0,0,1,1,2,2,3,3,4,4,7,7,10,10],"right_children":[2,4,6,8,10,-1,-1,12,-1,-1,14,-1,-1,-1,-1],"split_conditions":[1.558643E0,4.390244E-1,7.9E1,1.5819085E-1,5.2747256E-1,1.0741722E-1,-4.1456535E-3,1.2666667E-1,-4.4238504E-2,8.4585465E-2,1.2037736E0,-2.7571375E-2,3.2586623E-2,-3.052847E-2,3.6350776E-2],"split_indices":[6,4,0,8,4,0,0,8,0,0,6,0,0,0,0],"split_type":[0,0,0,0,0,0,0,0,0,0,0,0,0,0,0],"sum_hessian":[3.335991E1,2.6842342E1,6.5175667E0,2.1801388E1,5.040955E0,4.6727805E0,1.8447862E0,6.6624584E0,1.5138929E1,1.1262293E0,3.9147258E0,5.1192284E0,1.5432298E0,1.5819963E0,2.3327296E0],"tree_param":{"num_deleted":"0","num_feature":"10","num_nodes":"15","size_leaf_vector":"1"}},{"base_weights":[3.4869827E-2,5.4067E-1,-3.3271497E-1,-3.956654E-2,9.702689E-1,-5.239792E-1,4.7009736E-1,1.01141214E-1,-3.1355925E-2,-4.565454E-2,-2.1786443E-3,8.681206E-2,-3.1526648E-2],"categories":[],"categories_nodes":[],"categories_segments":[],"categories_sizes":[],"default_left":[0,0,0,0,0,0,0,0,0,0,0,0,0],"id":29,"left_children":[1,3,5,-1,7,9,11,-1,-1,-1,-1,-1,-1],"loss_changes":[7.3555765E0,7.873473E0,3.7733812E0,0E0,5.336046E0,4.257927E-1,3.0568748E0,0E0,0E0,0E0,0E0,0E0,0E0],"parents":[2147483647,0,0,1,1,2,2,4,4,5,5,6,6],"right_children":[2,4,6,-1,8,10,12,-1,-1,-1,-1,-1,-1],"split_conditions":[8.8E-2,1.4E1,1.4026444E0,-3.956654E-2,6.6935486E-1,5E0,1.58E2,1.01141214E-1,-3.1355925E-2,-4.565454E-2,-2.1786443E-3,8.681206E-2,-3.1526648E-2],"split_indices":[7,0,7,0,2,1,0,0,0,0,0,0,0],"split_type":[0,0,0,0,0,0,0,0,0,0,0,0,0],"sum_hessian":[3.7594643E1,1.5624421E1,2.197022E1,4.537836E0,1.1086585E1,1.802356E1,3.9466612E0,9.177737E0,1.9088479E0,1.6338612E1,1.6849476E0,2.15629E0,1.790371E0],"tree_param":{"num_deleted":"0","num_feature":"10","num_nodes":"13","size_leaf_vector":"1"}},{"base_weights":[-5.9072904E-2,-3.876861E-1,6.684282E-1,3.0012846E-1,-6.42562E-1,6.3698076E-2,-3.8402785E-2,4.6905693E-1,-4.034385E-2,-6.681062E-1,-6.983576E-3,5.4964222E-2,-2.1762323E-2,-1.6952882E-2,-5.5521566E-2],"categories":[],"categories_nodes":[],"categories_segments":[],"categories_sizes":[],"default_left":[0,0,0,0,0,0,0,0,0,0,0,0,0,0,0],"id":30,"left_children":[1,3,5,7,9,-1,-1,11,-1,13,-1,-1,-1,-1,-1],"loss_changes":[1.3728217E1,7.107455E0,3.0090585E0,1.7783302E0,3.5438538E-1,0E0,0E0,1.7854397E0,0E0,1.7999744E-1,0E0,0E0,0E0,0E0,0E0],"parents":[2147483647,0,0,1,1,2,2,3,3,4,4,7,7,9,9],"right_children":[2,4,6,8,10,-1,-1,12,-1,14,-1,-1,-1,-1,-1],"split_conditions":[6.6935486E-1,9.623074E-1,3E0,1.6325E-1,1.6350889E0,6.3698076E-2,-3.8402785E-2,2.7380952E-1,-4.034385E-2,3.125E-1,-6.983576E-3,5.4964222E-2,-2.1762323E-2,-1.6952882E-2,-5.5521566E-2],"split_indices":[2,6,1,9,7,0,0,4,0,2,0,0,0,0,0],"split_type":[0,0,0,0,0,0,0,0,0,0,0,0,0,0,0],"sum_hessian":[5.53403E1,3.8442757E1,1.6897547E1,1.0345791E1,2.8096966E1,1.5481509E1,1.416037E0,8.8948E0,1.4509904E0,2.6666977E1,1.42999E0,6.9293823E0,1.9654176E0,1.9266555E0,2.474032E1],"tree_param":{"num_deleted":"0","num_feature":"10","num_nodes":"15","size_leaf_vector":"1"}},{"base_weights":[-1.07861E-2,5.9266424E-1,-4.0970027E-2,-2.86345E-2,8.0194235E-1,-7.718235E-2,1.0765449E0,1.3233492E-2,-2.3199446E-2,6.289493E-3,1.0354587E-1],"categories":[],"categories_nodes":[],"categories_segments":[],"categories_sizes":[],"default_left":[0,0,0,0,0,0,0,0,0,0,0],"id":31,"left_children":[1,3,-1,-1,5,7,9,-1,-1,-1,-1],"loss_changes":[7.6152496E0,2.5610766E0,0E0,0E0,2.419201E0,2.1505654E-1,1.5152826E0,0E0,0E0,0E0,0E0],"parents":[2147483647,0,0,1,1,4,4,5,5,6,6],"right_children":[2,4,-1,-1,6,8,10,-1,-1,-1,-1],"split_conditions":[5.16129E-1,3.655914E-1,-4.0970027E-2,-2.86345E-2,1.575E-1,1.21E-1,4.993468E-1,1.3233492E-2,-2.3199446E-2,6.289493E-3,1.0354587E-1],"split_indices":[2,2,0,0,9,9,6,0,0,0,0],"split_type":[0,0,0,0,0,0,0,0,0,0,0],"sum_hessian":[2.3168344E1,1.0430834E1,1.2737512E1,1.7538908E0,8.676943E0,2.236344E0,6.4405985E0,1.1490922E0,1.087252E0,1.3975599E0,5.043039E0],"tree_param":{"num_deleted":"0","num_feature":"10","num_nodes":"11","size_leaf_vector":"1"}},{"base_weights":[-5.55892E-2,9.492294E-2,-3.485103E-2],"categories":[],"categories_nodes":[],"categories_segments":[],"categories_sizes":[],"default_left":[0,0,0],"id":32,"left_children":[1,-1,-1],"loss_changes":[4.11943E0,0E0,0E0],"parents":[2147483647,0,0],"right_children":[2,-1,-1],"split_conditions":[3.888889E-1,9.492294E-2,-3.485103E-2],"split_indices":[2,0,0],"split_type":[0,0,0],"sum_hessian":[6.631373E0,1.0564562E0,5.5749164E0],"tree_param":{"num_deleted":"0","num_feature":"10","num_nodes":"3","size_leaf_vector":"1"}},{"base_weights":[5.6441367E-2,-2.7518485E-2,4.4909883E-2],"categories":[],"categories_nodes":[],"categories_segments":[],"categories_sizes":[],"default_left":[0,0,0],"id":33,"left_children":[1,-1,-1],"loss_changes":[1.0913377E0,0E0,0E0],"parents":[2147483647,0,0],"right_children":[2,-1,-1],"split_conditions":[5.579E-1,-2.7518485E-2,4.4909883E-2],"split_indices":[7,0,0],"split_type":[0,0,0],"sum_hessian":[3.4426177E0,2.0977855E0,1.3448323E0],"tree_param":{"num_deleted":"0","num_feature":"10","num_nodes":"3","size_leaf_vector":"1"}},{"base_weights":[2.0729227E-2,9.112682E-2,-1.6567577E-1,-3.917932E-1,4.3218124E-1,3.900532E-2,-4.4005368E-2,7.473567E-2,1.6295494E-1,3.0452393E-2,-3.351774E-2,-2.4172029E-2,7.2840266E-2],"categories":[],"categories_nodes":[],"categories_segments":[],"categories_sizes":[],"default_left":[0,0,0,0,0,0,0,0,0,0,0,0,0],"id":34,"left_children":[1,-1,3,5,7,9,-1,-1,11,-1,-1,-1,-1],"loss_changes":[7.461958E0,0E0,4.330038E0,1.579881E0,1.0535722E0,1.2664679E0,0E0,0E0,2.7153692E0,0E0,0E0,0E0,0E0],"parents":[2147483647,0,0,2,2,3,3,4,4,5,5,8,8],"right_children":[2,-1,4,6,8,10,-1,-1,12,-1,-1,-1,-1],"split_conditions":[4E0,9.112682E-2,4.390244E-1,1.5819085E-1,5.344828E-1,1.23E2,-4.4005368E-2,7.473567E-2,6.7741936E-1,3.0452393E-2,-3.351774E-2,-2.4172029E-2,7.2840266E-2],"split_indices":[0,0,4,8,4,0,0,0,4,0,0,0,0],"split_type":[0,0,0,0,0,0,0,0,0,0,0,0,0],"sum_hessian":[3.3889137E1,4.1114225E0,2.9777714E1,2.1856113E1,7.9216003E0,6.0748425E0,1.5781271E1,1.9030801E0,6.01852E0,3.5759947E0,2.4988477E0,4.0774484E0,1.9410715E0],"tree_param":{"num_deleted":"0","num_feature":"10","num_nodes":"13","size_leaf_vector":"1"}},{"base_weights":[-3.5963222E-2,-2.8989998E-1,3.265459E-1,-5.169118E-1,5.36161E-1,-4.1999247E-2,9.012738E-2,-4.516875E-2,-1.9910815E-3,8.5961E-2,-3.0928502E-2],"categories":[],"categories_nodes":[],"categories_segments":[],"categories_sizes":[],"default_left":[0,0,0,0,0,0,0,0,0,0,0],"id":35,"left_children":[1,3,5,7,9,-1,-1,-1,-1,-1,-1],"loss_changes":[3.5919569E0,4.566079E0,1.1573777E1,4.189372E-1,3.108529E0,0E0,0E0,0E0,0E0,0E0,0E0],"parents":[2147483647,0,0,1,1,2,2,3,3,4,4],"right_children":[2,4,6,8,10,-1,-1,-1,-1,-1,-1],"split_conditions":[5E-1,1.4026444E0,1.8E1,5E0,1.58E2,-4.1999247E-2,9.012738E-2,-4.516875E-2,-1.9910815E-3,8.5961E-2,-3.0928502E-2],"split_indices":[9,7,0,1,0,0,0,0,0,0,0],"split_type":[0,0,0,0,0,0,0,0,0,0,0],"sum_hessian":[3.6991577E1,2.187117E1,1.5120405E1,1.7449951E1,4.421219E0,7.4910445E0,7.62936E0,1.5773332E1,1.6766202E0,2.6883585E0,1.7328606E0],"tree_param":{"num_deleted":"0","num_feature":"10","num_nodes":"11","size_leaf_vector":"1"}},{"base_weights":[1.4754105E-2,-3.4616396E-1,6.547398E-1,-5.7710296E-1,3.4294578E-1,6.142624E-2,-3.758463E-2,-6.3838214E-1,2.2307094E-2,5.21546E-1,-9.610305E-3,-1.6824491E-2,-5.3219777E-2,4.816304E-2,1.0868349E-2],"categories":[],"categories_nodes":[],"categories_segments":[],"categories_sizes":[],"default_left":[0,0,0,0,0,0,0,0,0,0,0,0,0,0,0],"id":36,"left_children":[1,3,5,7,9,-1,-1,11,-1,13,-1,-1,-1,-1,-1],"loss_changes":[1.2458068E1,5.6904397E0,2.8330564E0,1.5534363E0,8.310125E-1,0E0,0E0,1.4501381E-1,0E0,1.3216507E-1,0E0,0E0,0E0,0E0,0E0],"parents":[2147483647,0,0,1,1,2,2,3,3,4,4,7,7,9,9],"right_children":[2,4,6,8,10,-1,-1,12,-1,14,-1,-1,-1,-1,-1],"split_conditions":[6.6935486E-1,1E0,3E0,1.24E2,4.5833334E-1,6.142624E-2,-3.758463E-2,3.125E-1,2.2307094E-2,2.0333834E-1,-9.610305E-3,-1.6824491E-2,-5.3219777E-2,4.816304E-2,1.0868349E-2],"split_indices":[2,3,1,0,2,0,0,2,0,8,0,0,0,0,0],"split_type":[0,0,0,0,0,0,0,0,0,0,0,0,0,0,0],"sum_hessian":[5.1953907E1,3.351329E1,1.8440617E1,2.522295E1,8.290342E0,1.7043842E1,1.3967745E0,2.3775007E1,1.4479415E0,5.8917313E0,2.398611E0,1.9252785E0,2.184973E1,4.4103756E0,1.4813554E0],"tree_param":{"num_deleted":"0","num_feature":"10","num_nodes":"15","size_leaf_vector":"1"}},{"base_weights":[2.3094893E-2,5.599916E-1,-4.0410828E-2,-1.4788245E-1,7.797739E-1,1.3427594E-2,-2.7786288E-2,-2.2824598E-2,9.3819594E-1,8.497549E-2,8.463697E-3],"categories":[],"categories_nodes":[],"categories_segments":[],"categories_sizes":[],"default_left":[0,0,0,0,0,0,0,0,0,0,0],"id":37,"left_children":[1,3,-1,5,7,-1,-1,-1,9,-1,-1],"loss_changes":[7.1376495E0,2.0539744E0,0E0,2.9713672E-1,1.8989992E0,0E0,0E0,0E0,7.803836E-1,0E0,0E0],"parents":[2147483647,0,0,1,1,3,3,4,4,8,8],"right_children":[2,4,-1,6,8,-1,-1,-1,10,-1,-1],"split_conditions":[5.4545456E-1,1.61E-1,-4.0410828E-2,1.21E-1,3.655914E-1,1.3427594E-2,-2.7786288E-2,-2.2824598E-2,2.0572083E-1,8.497549E-2,8.463697E-3],"split_indices":[2,9,0,9,2,0,0,0,8,0,0],"split_type":[0,0,0,0,0,0,0,0,0,0,0],"sum_hessian":[2.3170155E1,1.1460996E1,1.170916E1,2.7928698E0,8.668125E0,1.1425828E0,1.650287E0,1.0186623E0,7.649463E0,6.417434E0,1.2320292E0],"tree_param":{"num_deleted":"0","num_feature":"10","num_nodes":"11","size_leaf_vector":"1"}},{"base_weights":[6.0380694E-2,1.2782288E-1,-3.499943E-2],"categories":[],"categories_nodes":[],"categories_segments":[],"categories_sizes":[],"default_left":[0,0,0],"id":38,"left_children":[1,-1,-1],"loss_changes":[6.677869E0,0E0,0E0],"parents":[2147483647,0,0],"right_children":[2,-1,-1],"split_conditions":[3.655914E-1,1.2782288E-1,-3.499943E-2],"split_indices":[2,0,0],"split_type":[0,0,0],"sum_hessian":[6.811062E0,1.1257107E0,5.6853514E0],"tree_param":{"num_deleted":"0","num_feature":"10","num_nodes":"3","size_leaf_vector":"1"}},{"base_weights":[6.3603744E-2,-2.850927E-2,5.8709588E-2],"categories":[],"categories_nodes":[],"categories_segments":[],"categories_sizes":[],"default_left":[0,0,0],"id":39,"left_children":[1,-1,-1],"loss_changes":[1.4965467E0,0E0,0E0],"parents":[2147483647,0,0],"right_children":[2,-1,-1],"split_conditions":[1.3546338E0,-2.850927E-2,5.8709588E-2],"split_indices":[6,0,0],"split_type":[0,0,0],"sum_hessian":[3.387418E0,2.3704705E0,1.0169475E0],"tree_param":{"num_deleted":"0","num_feature":"10","num_nodes":"3","size_leaf_vector":"1"}},{"base_weights":[4.672056E-2,8.5685015E-2,-1.5291567E-1,-4.18052E-1,4.2780435E-1,-1.109773E-1,-4.3237746E-2,7.7617414E-2,1.1908097E-1,-2.5418743E-2,3.0459143E-2,-2.5374718E-2,6.800525E-2],"categories":[],"categories_nodes":[],"categories_segments":[],"categories_sizes":[],"default_left":[0,0,0,0,0,0,0,0,0,0,0,0,0],"id":40,"left_children":[1,-1,3,5,7,9,-1,-1,11,-1,-1,-1,-1],"loss_changes":[7.200827E0,0E0,4.747758E0,7.248814E-1,1.5248042E0,8.5392475E-1,0E0,0E0,2.6239274E0,0E0,0E0,0E0,0E0],"parents":[2147483647,0,0,2,2,3,3,4,4,5,5,8,8],"right_children":[2,-1,4,6,8,10,-1,-1,12,-1,-1,-1,-1],"split_conditions":[4E-2,8.5685015E-2,4.390244E-1,1.5819085E-1,5.344828E-1,1.5524374E-1,-4.3237746E-2,7.7617414E-2,6.7741936E-1,-2.5418743E-2,3.0459143E-2,-2.5374718E-2,6.800525E-2],"split_indices":[7,0,4,8,4,8,0,0,4,0,0,0,0],"split_type":[0,0,0,0,0,0,0,0,0,0,0,0,0],"sum_hessian":[3.3411682E1,4.7376294E0,2.8674055E1,1.9878393E1,8.79566E0,6.209409E0,1.3668984E1,2.4131632E0,6.3824973E0,4.6204348E0,1.5889742E0,4.3515186E0,2.0309787E0],"tree_param":{"num_deleted":"0","num_feature":"10","num_nodes":"13","size_leaf_vector":"1"}},{"base_weights":[-1.1902895E-2,3.917999E-1,-2.68337E-1,-3.9726187E-2,9.222069E-1,-4.3342575E-2,6.1312072E-2,8.1618294E-2,7.827152E-3,6.547519E-2,-4.1807093E-2],"categories":[],"categories_nodes":[],"categories_segments":[],"categories_sizes":[],"default_left":[0,0,0,0,0,0,0,0,0,0,0],"id":41,"left_children":[1,3,5,-1,7,-1,9,-1,-1,-1,-1],"loss_changes":[3.9585278E0,7.462734E0,2.1386151E0,0E0,6.806288E-1,0E0,5.5065694E0,0E0,0E0,0E0,0E0],"parents":[2147483647,0,0,1,1,2,2,4,4,6,6],"right_children":[2,4,6,-1,8,-1,10,-1,-1,-1,-1],"split_conditions":[1.6782333E-1,1.5561193E-1,1.6161616E-1,-3.9726187E-2,1.3546338E0,-4.3342575E-2,4.390244E-1,8.1618294E-2,7.827152E-3,6.547519E-2,-4.1807093E-2],"split_indices":[8,8,4,0,6,0,4,0,0,0,0],"split_type":[0,0,0,0,0,0,0,0,0,0,0],"sum_hessian":[3.6222523E1,1.3865798E1,2.2356724E1,5.207519E0,8.658278E0,1.18683605E1,1.0488364E1,7.525826E0,1.1324526E0,4.391871E0,6.0964932E0],"tree_param":{"num_deleted":"0","num_feature":"10","num_nodes":"11","size_leaf_vector":"1"}},{"base_weights":[1.3397575E-2,-3.2079184E-1,6.571362E-1,5.6414798E-2,-4.9043545E-1,5.8839906E-2,-1.2788224E-2,3.1506684E-2,-5.8292025E-1,-1.6054673E-3,-5.078188E-2],"categories":[],"categories_nodes":[],"categories_segments":[],"categories_sizes":[],"default_left":[0,0,0,0,0,0,0,0,0,0,0],"id":42,"left_children":[1,3,5,-1,7,-1,-1,-1,9,-1,-1],"loss_changes":[1.1390357E1,6.4166822E0,1.2755003E0,0E0,2.725587E0,0E0,0E0,0E0,8.0545044E-1,0E0,0E0],"parents":[2147483647,0,0,1,1,2,2,4,4,8,8],"right_children":[2,4,6,-1,8,-1,-1,-1,10,-1,-1],"split_conditions":[6.6935486E-1,1.265E-1,7.5757575E-1,5.6414798E-2,4.8127538E-1,5.8839906E-2,-1.2788224E-2,3.1506684E-2,3.2894737E-1,-1.6054673E-3,-5.078188E-2],"split_indices":[2,9,3,0,6,0,0,0,2,0,0],"split_type":[0,0,0,0,0,0,0,0,0,0,0],"sum_hessian":[5.0966343E1,3.387974E1,1.7086601E1,4.3591933E0,2.952055E1,1.5682168E1,1.4044328E0,2.4866583E0,2.7033892E1,2.397438E0,2.4636454E1],"tree_param":{"num_deleted":"0","num_feature":"10","num_nodes":"11","size_leaf_vector":"1"}},{"base_weights":[3.492481E-2,5.849533E-1,-4.0314317E-2,7.488545E-1,-2.666902E-2,8.557671E-2,9.719849E-1,-2.8543975E-2,4.887826E-2,8.0499025E-3,9.02815E-2],"categories":[],"categories_nodes":[],"categories_segments":[],"categories_sizes":[],"default_left":[0,0,0,0,0,0,0,0,0,0,0],"id":43,"left_children":[1,3,-1,5,-1,7,9,-1,-1,-1,-1],"loss_changes":[7.2657027E0,2.071154E0,0E0,1.4822221E0,0E0,1.0917032E0,9.528184E-1,0E0,0E0,0E0,0E0],"parents":[2147483647,0,0,1,1,3,3,5,5,6,6],"right_children":[2,4,-1,6,-1,8,10,-1,-1,-1,-1],"split_conditions":[5.16129E-1,7.5562E-1,-4.0314317E-2,4.084507E-1,-2.666902E-2,8.1E1,5.113418E-1,-2.8543975E-2,4.887826E-2,8.0499025E-3,9.02815E-2],"split_indices":[2,7,0,2,0,0,6,0,0,0,0],"split_type":[0,0,0,0,0,0,0,0,0,0,0],"sum_hessian":[2.2519844E1,1.1102029E1,1.1417814E1,9.57722E0,1.5248089E0,2.7590852E0,6.818135E0,1.6721083E0,1.0869769E0,1.2884848E0,5.52965E0],"tree_param":{"num_deleted":"0","num_feature":"10","num_nodes":"11","size_leaf_vector":"1"}},{"base_weights":[-4.0608708E-2,8.999097E-2,-3.4507386E-2],"categories":[],"categories_nodes":[],"categories_segments":[],"categories_sizes":[],"default_left":[0,0,0],"id":44,"left_children":[1,-1,-1],"loss_changes":[3.8370702E0,0E0,0E0],"parents":[2147483647,0,0],"right_children":[2,-1,-1],"split_conditions":[3.655914E-1,8.999097E-2,-3.4507386E-2],"split_indices":[2,0,0],"split_type":[0,0,0],"sum_hessian":[6.3602767E0,1.1251686E0,5.2351084E0],"tree_param":{"num_deleted":"0","num_feature":"10","num_nodes":"3","size_leaf_vector":"1"}},{"base_weights":[5.686489E-2,-2.834066E-2,5.412359E-2],"categories":[],"categories_nodes":[],"categories_segments":[],"categories_sizes":[],"default_left":[0,0,0],"id":45,"left_children":[1,-1,-1],"loss_changes":[1.3703122E0,0E0,0E0],"parents":[2147483647,0,0],"right_children":[2,-1,-1],"split_conditions":[1.379892E0,-2.834066E-2,5.412359E-2],"split_indices":[6,0,0],"split_type":[0,0,0],"sum_hessian":[3.437978E0,2.324273E0,1.113705E0],"tree_param":{"num_deleted":"0","num_feature":"10","num_nodes":"3","size_leaf_vector":"1"}},{"base_weights":[1.3053488E-2,7.9631105E-2,-1.8215099E-1,-4.1414165E-1,3.540606E-1,2.5139041E-2,-4.9885252E-1,7.259239E-2,2.346266E-2,-1.8859219E-2,-4.3177217E-2,-2.4858879E-2,5.4044604E-2],"categories":[],"categories_nodes":[],"categories_segments":[],"categories_sizes":[],"default_left":[0,0,0,0,0,0,0,0,0,0,0,0,0],"id":46,"left_children":[1,-1,3,5,7,-1,9,-1,11,-1,-1,-1,-1],"loss_changes":[6.781937E0,0E0,3.8239083E0,1.4583387E0,1.7104208E0,0E0,8.009386E-2,0E0,1.7250522E0,0E0,0E0,0E0,0E0],"parents":[2147483647,0,0,2,2,3,3,4,4,6,6,8,8],"right_children":[2,-1,4,6,8,-1,10,-1,12,-1,-1,-1,-1],"split_conditions":[4E0,7.9631105E-2,4.390244E-1,4.993468E-1,5.344828E-1,2.5139041E-2,1.5561193E-1,7.259239E-2,6.666667E-1,-1.8859219E-2,-4.3177217E-2,-2.4858879E-2,5.4044604E-2],"split_indices":[0,0,4,6,4,0,8,0,4,0,0,0,0],"split_type":[0,0,0,0,0,0,0,0,0,0,0,0,0],"sum_hessian":[3.3421955E1,4.860923E0,2.8561031E1,2.0094742E1,8.4662895E0,1.8112569E0,1.8283485E1,2.513887E0,5.952403E0,3.3677633E0,1.4915721E1,4.2815757E0,1.6708274E0],"tree_param":{"num_deleted":"0","num_feature":"10","num_nodes":"13","size_leaf_vector":"1"}},{"base_weights":[-1.6369136E-2,-4.7569913E-1,2.2142892E-1,-4.343582E-2,8.041179E-3,5.8288884E-1,-4.196978E-1,8.290062E-1,-3.485503E-2,-4.041577E-2,6.648483E-3,-2.670991E-2,7.890464E-2],"categories":[],"categories_nodes":[],"categories_segments":[],"categories_sizes":[],"default_left":[0,0,0,0,0,0,0,0,0,0,0,0,0],"id":47,"left_children":[1,3,5,-1,-1,7,9,11,-1,-1,-1,-1,-1],"loss_changes":[3.9404998E0,5.309849E-1,5.764037E0,0E0,0E0,4.284216E0,4.3611526E-1,2.6978073E0,0E0,0E0,0E0,0E0,0E0],"parents":[2147483647,0,0,1,1,2,2,5,5,6,6,7,7],"right_children":[2,4,6,-1,-1,8,10,12,-1,-1,-1,-1,-1],"split_conditions":[5.4545456E-1,1.04E2,7.126437E-1,-4.343582E-2,8.041179E-3,1.3701692E0,1.1820763E0,1.5561193E-1,-3.485503E-2,-4.041577E-2,6.648483E-3,-2.670991E-2,7.890464E-2],"split_indices":[2,0,2,0,0,6,6,8,0,0,0,0,0],"split_type":[0,0,0,0,0,0,0,0,0,0,0,0,0],"sum_hessian":[3.4111637E1,1.1294597E1,2.2817041E1,1.0165891E1,1.1287061E0,1.464896E1,8.16808E0,1.1948076E1,2.7008846E0,6.976927E0,1.1911534E0,1.2898853E0,1.0658191E1],"tree_param":{"num_deleted":"0","num_feature":"10","num_nodes":"13","size_leaf_vector":"1"}},{"base_weights":[-3.86588E-2,-3.7599283E-1,6.319681E-1,4.7515893E-1,-5.097739E-1,5.678695E-2,-1.3273999E-2,4.8224945E-2,6.3529974E-3,2.411936E-1,-5.984935E-1,4.4637483E-2,-1.4217075E-2,-4.9862888E-2,-6.544295E-3],"categories":[],"categories_nodes":[],"categories_segments":[],"categories_sizes":[],"default_left":[0,0,0,0,0,0,0,0,0,0,0,0,0,0,0],"id":48,"left_children":[1,3,5,7,9,-1,-1,-1,-1,11,13,-1,-1,-1,-1],"loss_changes":[1.1888498E1,4.2153406E0,1.2118406E0,2.1769881E-1,2.185453E0,0E0,0E0,0E0,0E0,6.232714E-1,3.0366993E-1,0E0,0E0,0E0,0E0],"parents":[2147483647,0,0,1,1,2,2,3,3,4,4,9,9,10,10],"right_children":[2,4,6,8,10,-1,-1,-1,-1,12,14,-1,-1,-1,-1],"split_conditions":[6.6935486E-1,1.265E-1,7.407407E-1,2.06125E-1,5.12575E-2,5.678695E-2,-1.3273999E-2,4.8224945E-2,6.3529974E-3,8E1,1.24E2,4.4637483E-2,-1.4217075E-2,-4.9862888E-2,-6.544295E-3],"split_indices":[2,9,3,8,8,0,0,0,0,0,0,0,0,0,0],"split_type":[0,0,0,0,0,0,0,0,0,0,0,0,0,0,0],"sum_hessian":[5.0501244E1,3.389231E1,1.6608932E1,4.2569113E0,2.96354E1,1.5232689E1,1.3762443E0,2.8230684E0,1.4338429E0,2.9496298E0,2.668577E1,1.4905342E0,1.4590955E0,2.526706E1,1.418712E0],"tree_param":{"num_deleted":"0","num_feature":"10","num_nodes":"15","size_leaf_vector":"1"}},{"base_weights":[1.032992E-2,4.9249426E-1,-3.972348E-2,-2.6698526E-2,6.3793486E-1,-2.3194913E-2,7.7270055E-1,-2.279715E-2,7.443771E-2],"categories":[],"categories_nodes":[],"categories_segments":[],"categories_sizes":[],"default_left":[0,0,0,0,0,0,0,0,0],"id":49,"left_children":[1,3,-1,-1,5,-1,7,-1,-1],"loss_changes":[5.822671E0,1.678838E0,0E0,0E0,1.5641022E0,0E0,1.8721652E0,0E0,0E0],"parents":[2147483647,0,0,1,1,4,4,6,6],"right_children":[2,4,-1,-1,6,-1,8,-1,-1],"split_conditions":[5.4545456E-1,3.655914E-1,-3.972348E-2,-2.6698526E-2,1.2025E-1,-2.3194913E-2,4.8127538E-1,-2.279715E-2,7.443771E-2],"split_indices":[2,2,0,0,9,0,6,0,0],"split_type":[0,0,0,0,0,0,0,0,0],"sum_hessian":[2.1824102E1,1.1199205E1,1.0624898E1,1.4825337E0,9.716672E0,1.0862631E0,8.630409E0,1.01563E0,7.614779E0],"tree_param":{"num_deleted":"0","num_feature":"10","num_nodes":"9","size_leaf_vector":"1"}},{"base_weights":[1.0158638E-1,-3.3618655E-2,9.03594E-2],"categories":[],"categories_nodes":[],"categories_segments":[],"categories_sizes":[],"default_left":[0,0,0],"id":50,"left_children":[1,-1,-1],"loss_changes":[4.3756733E0,0E0,0E0],"parents":[2147483647,0,0],"right_children":[2,-1,-1],"split_conditions":[4E0,-3.3618655E-2,9.03594E-2],"split_indices":[1,0,0],"split_type":[0,0,0],"sum_hessian":[6.2728515E0,4.5527897E0,1.7200615E0],"tree_param":{"num_deleted":"0","num_feature":"10","num_nodes":"3","size_leaf_vector":"1"}},{"base_weights":[-1.6548625E-1,-2.8563967E-2,1.9152664E-2],"categories":[],"categories_nodes":[],"categories_segments":[],"categories_sizes":[],"default_left":[0,0,0],"id":51,"left_children":[1,-1,-1],"loss_changes":[4.2680478E-1,0E0,0E0],"parents":[2147483647,0,0],"right_children":[2,-1,-1],"split_conditions":[1.5032848E0,-2.8563967E-2,1.9152664E-2],"split_indices":[6,0,0],"split_type":[0,0,0],"sum_hessian":[3.4006083E0,2.388656E0,1.0119523E0],"tree_param":{"num_deleted":"0","num_feature":"10","num_nodes":"3","size_leaf_vector":"1"}},{"base_weights":[-1.9075675E-3,7.32216E-2,-1.743442E-1,-3.6366957E-1,2.7561942E-1,-8.301872E-3,-4.2372856E-2,6.1585926E-2,1.4394276E-2,2.4832616E-2,-3.3883397E-2,-2.49646E-2,5.1697772E-2],"categories":[],"categories_nodes":[],"categories_segments":[],"categories_sizes":[],"default_left":[0,0,0,0,0,0,0,0,0,0,0,0,0],"id":52,"left_children":[1,-1,3,5,7,9,-1,-1,11,-1,-1,-1,-1],"loss_changes":[5.443757E0,0E0,2.567656E0,1.2235758E0,1.1697233E0,1.1430596E0,0E0,0E0,1.6460534E0,0E0,0E0,0E0,0E0],"parents":[2147483647,0,0,2,2,3,3,4,4,5,5,8,8],"right_children":[2,-1,4,6,8,10,-1,-1,12,-1,-1,-1,-1],"split_conditions":[4E0,7.32216E-2,4.390244E-1,1.5819085E-1,5.344828E-1,1.23E2,-4.2372856E-2,6.1585926E-2,6.7741936E-1,2.4832616E-2,-3.3883397E-2,-2.49646E-2,5.1697772E-2],"split_indices":[0,0,4,8,4,0,0,0,4,0,0,0,0],"split_type":[0,0,0,0,0,0,0,0,0,0,0,0,0],"sum_hessian":[3.2411427E1,4.447522E0,2.7963905E1,1.981738E1,8.146524E0,6.6437964E0,1.3173585E1,2.1437833E0,6.002741E0,3.9016368E0,2.7421598E0,4.2915125E0,1.7112281E0],"tree_param":{"num_deleted":"0","num_feature":"10","num_nodes":"13","size_leaf_vector":"1"}},{"base_weights":[6.9351397E-3,3.4650698E-1,-2.6064083E-1,-3.7604634E-2,6.7623043E-1,-4.916069E-1,4.2397854E-1,7.399382E-2,-3.0481786E-2,-4.356069E-2,-2.2396427E-3,7.2907925E-2,-3.1236947E-2],"categories":[],"categories_nodes":[],"categories_segments":[],"categories_sizes":[],"default_left":[0,0,0,0,0,0,0,0,0,0,0,0,0],"id":53,"left_children":[1,3,5,-1,7,9,11,-1,-1,-1,-1,-1,-1],"loss_changes":[3.351304E0,4.6920204E0,3.472663E0,0E0,3.503162E0,3.7469363E-1,2.6360264E0,0E0,0E0,0E0,0E0,0E0,0E0],"parents":[2147483647,0,0,1,1,2,2,4,4,5,5,6,6],"right_children":[2,4,6,-1,8,10,12,-1,-1,-1,-1,-1,-1],"split_conditions":[8.8E-2,1.4E1,1.4026444E0,-3.7604634E-2,6.6935486E-1,5E0,1.58E2,7.399382E-2,-3.0481786E-2,-4.356069E-2,-2.2396427E-3,7.2907925E-2,-3.1236947E-2],"split_indices":[7,0,7,0,2,1,0,0,0,0,0,0,0],"split_type":[0,0,0,0,0,0,0,0,0,0,0,0,0],"sum_hessian":[3.4889774E1,1.5246262E1,1.9643515E1,4.263077E0,1.0983185E1,1.4899038E1,4.744476E0,8.992976E0,1.9902087E0,1.3216443E1,1.6825949E0,2.893803E0,1.8506731E0],"tree_param":{"num_deleted":"0","num_feature":"10","num_nodes":"13","size_leaf_vector":"1"}},{"base_weights":[-3.8408503E-2,-3.473799E-1,5.771906E-1,5.249302E-1,-5.170689E-1,5.526623E-2,-3.6148462E-2,5.0708048E-2,8.171727E-3,1.1347492E-2,-5.8139116E-1,-4.8532087E-2,-5.086307E-3],"categories":[],"categories_nodes":[],"categories_segments":[],"categories_sizes":[],"default_left":[0,0,0,0,0,0,0,0,0,0,0,0,0],"id":54,"left_children":[1,3,5,7,9,-1,-1,-1,-1,-1,11,-1,-1],"loss_changes":[9.995415E0,5.4391904E0,2.3685093E0,2.1991932E-1,1.3425317E0,0E0,0E0,0E0,0E0,0E0,3.1828403E-1,0E0,0E0],"parents":[2147483647,0,0,1,1,2,2,3,3,4,4,10,10],"right_children":[2,4,6,8,10,-1,-1,-1,-1,-1,12,-1,-1],"split_conditions":[6.6935486E-1,1.265E-1,3E0,2.0635729E-1,5.12575E-2,5.526623E-2,-3.6148462E-2,5.0708048E-2,8.171727E-3,1.1347492E-2,1.24E2,-4.8532087E-2,-5.086307E-3],"split_indices":[2,9,1,8,8,0,0,0,0,0,0,0,0],"split_type":[0,0,0,0,0,0,0,0,0,0,0,0,0],"sum_hessian":[5.0497272E1,3.391228E1,1.6584991E1,5.181675E0,2.8730608E1,1.5231638E1,1.353354E0,3.7232366E0,1.4584384E0,2.4480233E0,2.6282583E1,2.4896515E1,1.3860687E0],"tree_param":{"num_deleted":"0","num_feature":"10","num_nodes":"13","size_leaf_vector":"1"}},{"base_weights":[9.653237E-3,4.9501246E-1,-3.955028E-2,-2.63298E-2,6.3896984E-1,-6.843148E-2,8.3149785E-1,1.608502E-2,-2.3436232E-2,4.2285365E-3,7.911747E-2],"categories":[],"categories_nodes":[],"categories_segments":[],"categories_sizes":[],"default_left":[0,0,0,0,0,0,0,0,0,0,0],"id":55,"left_children":[1,3,-1,-1,5,7,9,-1,-1,-1,-1],"loss_changes":[5.76409E0,1.6331921E0,0E0,0E0,1.4937348E0,2.513732E-1,9.738631E-1,0E0,0E0,0E0,0E0],"parents":[2147483647,0,0,1,1,4,4,5,5,6,6],"right_children":[2,4,-1,-1,6,8,10,-1,-1,-1,-1],"split_conditions":[5.16129E-1,3.655914E-1,-3.955028E-2,-2.63298E-2,1.575E-1,7.0562E-1,4.993468E-1,1.608502E-2,-2.3436232E-2,4.2285365E-3,7.911747E-2],"split_indices":[2,2,0,0,9,7,6,0,0,0,0],"split_type":[0,0,0,0,0,0,0,0,0,0,0],"sum_hessian":[2.1561506E1,1.0993331E1,1.0568175E1,1.4434636E0,9.549868E0,2.1809638E0,7.3689036E0,1.0386953E0,1.1422685E0,1.4642617E0,5.904642E0],"tree_param":{"num_deleted":"0","num_feature":"10","num_nodes":"11","size_leaf_vector":"1"}},{"base_weights":[1.491959E-1,1.111331E-1,-3.342693E-2],"categories":[],"categories_nodes":[],"categories_segments":[],"categories_sizes":[],"default_left":[0,0,0],"id":56,"left_children":[1,-1,-1],"loss_changes":[5.31672E0,0E0,0E0],"parents":[2147483647,0,0],"right_children":[2,-1,-1],"split_conditions":[3.655914E-1,1.111331E-1,-3.342693E-2],"split_indices":[2,0,0],"split_type":[0,0,0],"sum_hessian":[5.7362576E0,1.3450541E0,4.3912034E0],"tree_param":{"num_deleted":"0","num_feature":"10","num_nodes":"3","size_leaf_vector":"1"}},{"base_weights":[-1.6343425E-1,1.8985737E-2,-2.8509682E-2],"categories":[],"categories_nodes":[],"categories_segments":[],"categories_sizes":[],"default_left":[0,0,0],"id":57,"left_children":[1,-1,-1],"loss_changes":[4.2263827E-1,0E0,0E0],"parents":[2147483647,0,0],"right_children":[2,-1,-1],"split_conditions":[4.6078432E-1,1.8985737E-2,-2.8509682E-2],"split_indices":[2,0,0],"split_type":[0,0,0],"sum_hessian":[3.3722343E0,1.0211396E0,2.3510947E0],"tree_param":{"num_deleted":"0","num_feature":"10","num_nodes":"3","size_leaf_vector":"1"}},{"base_weights":[3.0177211E-2,6.740448E-2,-1.1969597E-1,-3.7985244E-1,3.383172E-1,1.1363632E-1,-4.6951973E-1,6.48193E-2,7.083479E-2,-2.7088132E-2,3.9585482E-2,-1.8035905E-2,-4.150088E-2,-2.5746161E-2,5.7738688E-2],"categories":[],"categories_nodes":[],"categories_segments":[],"categories_sizes":[],"default_left":[0,0,0,0,0,0,0,0,0,0,0,0,0,0,0],"id":58,"left_children":[1,-1,3,5,7,9,11,-1,13,-1,-1,-1,-1,-1,-1],"loss_changes":[3.904044E0,0E0,3.375148E0,8.4312415E-1,1.2553097E0,7.794233E-1,6.690884E-2,0E0,2.2087097E0,0E0,0E0,0E0,0E0,0E0,0E0],"parents":[2147483647,0,0,2,2,3,3,4,4,5,5,6,6,8,8],"right_children":[2,-1,4,6,8,10,12,-1,14,-1,-1,-1,-1,-1,-1],"split_conditions":[4E0,6.740448E-2,4.390244E-1,6.375625E-2,5.344828E-1,4.375E-1,1.5819085E-1,6.48193E-2,6.7741936E-1,-2.7088132E-2,3.9585482E-2,-1.8035905E-2,-4.150088E-2,-2.5746161E-2,5.7738688E-2],"split_indices":[0,0,4,8,4,2,8,0,4,0,0,0,0,0,0],"split_type":[0,0,0,0,0,0,0,0,0,0,0,0,0,0,0],"sum_hessian":[3.023675E1,3.9895945E0,2.6247156E1,1.6847975E1,9.399181E0,2.549477E0,1.4298497E1,2.6661344E0,6.7330475E0,1.2171483E0,1.3323289E0,3.3369434E0,1.0961554E1,4.514931E0,2.2181163E0],"tree_param":{"num_deleted":"0","num_feature":"10","num_nodes":"15","size_leaf_vector":"1"}},{"base_weights":[9.964193E-3,-2.5704476E-1,3.2858285E-1,-4.8201084E-1,2.7463844E-1,-3.9581645E-2,7.001026E-2,-4.2990267E-2,-7.03605E-3,-3.0670697E-2,6.4400107E-1,6.568897E-2,5.2302866E-3],"categories":[],"categories_nodes":[],"categories_segments":[],"categories_sizes":[],"default_left":[0,0,0,0,0,0,0,0,0,0,0,0,0],"id":59,"left_children":[1,3,5,7,9,-1,-1,-1,-1,-1,11,-1,-1],"loss_changes":[3.1466563E0,2.5418596E0,8.01554E0,2.6949382E-1,1.8574214E0,0E0,0E0,0E0,0E0,0E0,4.194908E-1,0E0,0E0],"parents":[2147483647,0,0,1,1,2,2,3,3,4,4,10,10],"right_children":[2,4,6,8,10,-1,-1,-1,-1,-1,12,-1,-1],"split_conditions":[5E-1,1.23E2,1.8E1,5E0,3E0,-3.9581645E-2,7.001026E-2,-4.2990267E-2,-7.03605E-3,-3.0670697E-2,1.3546338E0,6.568897E-2,5.2302866E-3],"split_indices":[9,0,0,1,1,0,0,0,0,0,6,0,0],"split_type":[0,0,0,0,0,0,0,0,0,0,0,0,0],"sum_hessian":[3.499448E1,1.9144363E1,1.5850116E1,1.3518031E1,5.626332E0,6.3614793E0,9.488637E0,1.1533778E1,1.9842534E0,2.0091162E0,3.6172156E0,2.4486313E0,1.1685843E0],"tree_param":{"num_deleted":"0","num_feature":"10","num_nodes":"13","size_leaf_vector":"1"}},{"base_weights":[-1.7671984E-2,-2.995606E-1,5.861504E-1,5.2556545E-1,-4.7580922E-1,5.3178966E-2,-1.2428196E-2,5.039146E-2,7.48555E-3,2.9032309E-2,-5.674009E-1,-4.738329E-2,-5.4488457E-3],"categories":[],"categories_nodes":[],"categories_segments":[],"categories_sizes":[],"default_left":[0,0,0,0,0,0,0,0,0,0,0,0,0],"id":60,"left_children":[1,3,5,7,9,-1,-1,-1,-1,-1,11,-1,-1],"loss_changes":[8.644339E0,5.2791367E0,1.0457187E0,2.3679197E-1,2.435172E0,0E0,0E0,0E0,0E0,0E0,2.8964138E-1,0E0,0E0],"parents":[2147483647,0,0,1,1,2,2,3,3,4,4,10,10],"right_children":[2,4,6,8,10,-1,-1,-1,-1,-1,12,-1,-1],"split_conditions":[6.6935486E-1,1.265E-1,7.5757575E-1,2.0638333E-1,4.8127538E-1,5.3178966E-2,-1.2428196E-2,5.039146E-2,7.48555E-3,2.9032309E-2,1.6350889E0,-4.738329E-2,-5.4488457E-3],"split_indices":[2,9,3,8,6,0,0,0,0,0,7,0,0],"split_type":[0,0,0,0,0,0,0,0,0,0,0,0,0],"sum_hessian":[4.8754528E1,3.3581314E1,1.5173216E1,5.5616975E0,2.8019615E1,1.38128195E1,1.3603961E0,4.1108255E0,1.4508718E0,2.4669876E0,2.5552628E1,2.4161861E1,1.390766E0],"tree_param":{"num_deleted":"0","num_feature":"10","num_nodes":"13","size_leaf_vector":"1"}},{"base_weights":[5.7455424E-2,4.7985178E-1,-3.885905E-2,-2.6476845E-2,6.12522E-1,-4.3222643E-2,7.581028E-1,-2.2315856E-2,1.7277462E-2,2.2969816E-2,7.260532E-2],"categories":[],"categories_nodes":[],"categories_segments":[],"categories_sizes":[],"default_left":[0,0,0,0,0,0,0,0,0,0,0],"id":61,"left_children":[1,3,-1,-1,5,7,9,-1,-1,-1,-1],"loss_changes":[5.2781305E0,1.5874298E0,0E0,0E0,1.1223183E0,2.4473289E-1,4.0068007E-1,0E0,0E0,0E0,0E0],"parents":[2147483647,0,0,1,1,4,4,5,5,6,6],"right_children":[2,4,-1,-1,6,8,10,-1,-1,-1,-1],"split_conditions":[5.4545456E-1,3.655914E-1,-3.885905E-2,-2.6476845E-2,1.575E-1,2.06125E-1,4.5E1,-2.2315856E-2,1.7277462E-2,2.2969816E-2,7.260532E-2],"split_indices":[2,2,0,0,9,8,0,0,0,0,0],"split_type":[0,0,0,0,0,0,0,0,0,0,0],"sum_hessian":[2.0988247E1,1.1872558E1,9.115688E0,1.4593216E0,1.0413237E1,2.0195608E0,8.393676E0,1.0177363E0,1.0018244E0,2.725688E0,5.6679873E0],"tree_param":{"num_deleted":"0","num_feature":"10","num_nodes":"11","size_leaf_vector":"1"}},{"base_weights":[8.14106E-2,9.0953454E-2,-3.3923607E-2],"categories":[],"categories_nodes":[],"categories_segments":[],"categories_sizes":[],"default_left":[0,0,0],"id":62,"left_children":[1,-1,-1],"loss_changes":[4.4628077E0,0E0,0E0],"parents":[2147483647,0,0],"right_children":[2,-1,-1],"split_conditions":[3.655914E-1,9.0953454E-2,-3.3923607E-2],"split_indices":[2,0,0],"split_type":[0,0,0],"sum_hessian":[6.461314E0,1.6877049E0,4.773609E0],"tree_param":{"num_deleted":"0","num_feature":"10","num_nodes":"3","size_leaf_vector":"1"}},{"base_weights":[1.00169174E-1,-2.6944546E-2,5.3299017E-2],"categories":[],"categories_nodes":[],"categories_segments":[],"categories_sizes":[],"default_left":[0,0,0],"id":63,"left_children":[1,-1,-1],"loss_changes":[1.2439079E0,0E0,0E0],"parents":[2147483647,0,0],"right_children":[2,-1,-1],"split_conditions":[1.379892E0,-2.6944546E-2,5.3299017E-2],"split_indices":[6,0,0],"split_type":[0,0,0],"sum_hessian":[3.1216094E0,1.9902472E0,1.1313622E0],"tree_param":{"num_deleted":"0","num_feature":"10","num_nodes":"3","size_leaf_vector":"1"}},{"base_weights":[2.5267769E-2,-2.2527637E-1,5.5901563E-1,-4.581649E-1,1.3957772E-1,7.2832465E-1,-2.8252766E-2,-4.1100014E-2,-1.8196878E-1,-3.2229166E-2,3.725775E-1,7.122041E-2,2.6990736E-1,-2.9673308E-2,1.3887425E-2,-3.142755E-2,5.5405244E-2,5.8238406E-2,-2.8903438E-2],"categories":[],"categories_nodes":[],"categories_segments":[],"categories_sizes":[],"default_left":[0,0,0,0,0,0,0,0,0,0,0,0,0,0,0,0,0,0,0],"id":64,"left_children":[1,3,5,7,9,11,-1,-1,13,-1,15,-1,17,-1,-1,-1,-1,-1,-1],"loss_changes":[4.4588976E0,1.9981723E0,1.9001374E0,1.23413324E-1,1.3679135E0,4.5000362E-1,0E0,0E0,3.2743582E-1,0E0,2.0501802E0,0E0,1.3797884E0,0E0,0E0,0E0,0E0,0E0,0E0],"parents":[2147483647,0,0,1,1,2,2,3,3,4,4,5,5,8,8,10,10,12,12],"right_children":[2,4,6,8,10,12,-1,-1,14,-1,16,-1,18,-1,-1,-1,-1,-1,-1],"split_conditions":[1.3701692E0,2.2857143E-1,9.2E1,1.17906E0,5.151515E-1,3.7037E-1,-2.8252766E-2,-4.1100014E-2,1.573584E-1,-3.2229166E-2,4.375E-1,7.122041E-2,1.9718063E-1,-2.9673308E-2,1.3887425E-2,-3.142755E-2,5.5405244E-2,5.8238406E-2,-2.8903438E-2],"split_indices":[6,4,0,7,3,7,0,0,8,0,2,0,8,0,0,0,0,0,0],"split_type":[0,0,0,0,0,0,0,0,0,0,0,0,0,0,0,0,0,0,0],"sum_hessian":[3.1401474E1,2.1763504E1,9.637971E0,1.3128046E1,8.635458E0,8.299122E0,1.3388495E0,1.0212631E1,2.9154143E0,2.3756704E0,6.2597876E0,5.436664E0,2.8624575E0,1.8755507E0,1.0398636E0,1.7783152E0,4.481472E0,1.5698583E0,1.2925992E0],"tree_param":{"num_deleted":"0","num_feature":"10","num_nodes":"19","size_leaf_vector":"1"}},{"base_weights":[-2.5982056E-2,-2.8740305E-1,2.874439E-1,-4.810565E-1,3.245623E-1,-3.9140984E-2,6.59868E-2,-4.2826984E-2,-2.8290658E-3,6.368203E-2,-3.0625608E-2],"categories":[],"categories_nodes":[],"categories_segments":[],"categories_sizes":[],"default_left":[0,0,0,0,0,0,0,0,0,0,0],"id":65,"left_children":[1,3,5,7,9,-1,-1,-1,-1,-1,-1],"loss_changes":[2.904832E0,2.4410076E0,7.1503315E0,3.4513044E-1,2.0495174E0,0E0,0E0,0E0,0E0,0E0,0E0],"parents":[2147483647,0,0,1,1,2,2,3,3,4,4],"right_children":[2,4,6,8,10,-1,-1,-1,-1,-1,-1],"split_conditions":[5E-1,1.4026444E0,1.8E1,5E0,1.58E2,-3.9140984E-2,6.59868E-2,-4.2826984E-2,-2.8290658E-3,6.368203E-2,-3.0625608E-2],"split_indices":[9,7,0,1,0,0,0,0,0,0,0],"split_type":[0,0,0,0,0,0,0,0,0,0,0],"sum_hessian":[3.344414E1,1.8280144E1,1.5163998E1,1.4048485E1,4.231659E0,6.237837E0,8.92616E0,1.2343982E1,1.7045029E0,2.4640703E0,1.7675887E0],"tree_param":{"num_deleted":"0","num_feature":"10","num_nodes":"11","size_leaf_vector":"1"}},{"base_weights":[-2.7694186E-2,-3.1658137E-1,5.7530695E-1,2.574372E-1,-6.096937E-1,5.1574826E-2,-8.017816E-3,-3.269856E-1,4.716943E-1,-1.021579E-2,-5.179276E-2,-6.0912496E-3,-3.4686707E-2,7.3809177E-3,4.436498E-2],"categories":[],"categories_nodes":[],"categories_segments":[],"categories_sizes":[],"default_left":[0,0,0,0,0,0,0,0,0,0,0,0,0,0,0],"id":66,"left_children":[1,3,5,7,9,-1,-1,11,13,-1,-1,-1,-1,-1,-1],"loss_changes":[8.153172E0,5.4706726E0,7.7587986E-1,1.5790288E0,3.0278063E-1,0E0,0E0,6.440085E-2,2.2350538E-1,0E0,0E0,0E0,0E0,0E0,0E0],"parents":[2147483647,0,0,1,1,2,2,3,3,4,4,7,7,8,8],"right_children":[2,4,6,8,10,-1,-1,12,14,-1,-1,-1,-1,-1,-1],"split_conditions":[6.6935486E-1,1.6E-1,7.5757575E-1,6.962025E-1,3.125E-1,5.1574826E-2,-8.017816E-3,5.8E-1,1.5623687E-1,-1.021579E-2,-5.179276E-2,-6.0912496E-3,-3.4686707E-2,7.3809177E-3,4.436498E-2],"split_indices":[2,9,3,3,2,0,0,2,8,0,0,0,0,0,0],"split_type":[0,0,0,0,0,0,0,0,0,0,0,0,0,0,0],"sum_hessian":[4.4758163E1,3.0581903E1,1.4176258E1,1.0378605E1,2.02033E1,1.2897334E1,1.2789245E0,2.6430628E0,7.735542E0,1.7844439E0,1.8418856E1,1.2994642E0,1.3435986E0,1.7654271E0,5.9701147E0],"tree_param":{"num_deleted":"0","num_feature":"10","num_nodes":"15","size_leaf_vector":"1"}},{"base_weights":[1.0725677E-2,4.0194556E-1,-3.9073918E-2,5.118097E-1,-2.5588812E-2,-2.2891462E-2,6.107499E-1,1.819975E-2,7.184969E-2],"categories":[],"categories_nodes":[],"categories_segments":[],"categories_sizes":[],"default_left":[0,0,0,0,0,0,0,0,0],"id":67,"left_children":[1,3,-1,5,-1,-1,7,-1,-1],"loss_changes":[4.727721E0,1.2388232E0,0E0,1.1340892E0,0E0,0E0,1.0214634E0,0E0,0E0],"parents":[2147483647,0,0,1,1,3,3,6,6],"right_children":[2,4,-1,6,-1,-1,8,-1,-1],"split_conditions":[5.16129E-1,7.5562E-1,-3.9073918E-2,4.8127538E-1,-2.5588812E-2,-2.2891462E-2,7.4444443E-1,1.819975E-2,7.184969E-2],"split_indices":[2,7,0,6,0,0,3,0,0],"split_type":[0,0,0,0,0,0,0,0,0],"sum_hessian":[2.2204956E1,1.2557484E1,9.647473E0,1.1151132E1,1.4063523E0,1.0214062E0,1.0129725E1,5.108464E0,5.021261E0],"tree_param":{"num_deleted":"0","num_feature":"10","num_nodes":"9","size_leaf_vector":"1"}},{"base_weights":[9.713516E-2,9.320448E-2,-3.3686776E-2],"categories":[],"categories_nodes":[],"categories_segments":[],"categories_sizes":[],"default_left":[0,0,0],"id":68,"left_children":[1,-1,-1],"loss_changes":[4.507369E0,0E0,0E0],"parents":[2147483647,0,0],"right_children":[2,-1,-1],"split_conditions":[3.655914E-1,9.320448E-2,-3.3686776E-2],"split_indices":[2,0,0],"split_type":[0,0,0],"sum_hessian":[6.258136E0,1.6368371E0,4.621299E0],"tree_param":{"num_deleted":"0","num_feature":"10","num_nodes":"3","size_leaf_vector":"1"}},{"base_weights":[9.513599E-2,-2.6997944E-2,5.242242E-2],"categories":[],"categories_nodes":[],"categories_segments":[],"categories_sizes":[],"default_left":[0,0,0],"id":69,"left_children":[1,-1,-1],"loss_changes":[1.2279679E0,0E0,0E0],"parents":[2147483647,0,0],"right_children":[2,-1,-1],"split_conditions":[1.379892E0,-2.6997944E-2,5.242242E-2],"split_indices":[6,0,0],"split_type":[0,0,0],"sum_hessian":[3.1548789E0,2.0043797E0,1.1504991E0],"tree_param":{"num_deleted":"0","num_feature":"10","num_nodes":"3","size_leaf_vector":"1"}},{"base_weights":[9.559085E-3,-2.3401134E-1,5.104062E-1,-3.9722316E-2,-2.4176199E-2,6.7640454E-1,-2.778496E-2,-3.6935713E-2,1.9423948E-1,6.700215E-2,2.417363E-1,3.424984E-2,-3.0780917E-2,-3.1534203E-3,3.645075E-2],"categories":[],"categories_nodes":[],"categories_segments":[],"categories_sizes":[],"default_left":[0,0,0,0,0,0,0,0,0,0,0,0,0,0,0],"id":70,"left_children":[1,3,5,-1,7,9,-1,-1,11,-1,13,-1,-1,-1,-1],"loss_changes":[3.779546E0,1.1377248E0,1.6774013E0,0E0,1.2986245E0,4.1578245E-1,0E0,0E0,1.4027638E0,0E0,2.4606746E-1,0E0,0E0,0E0,0E0],"parents":[2147483647,0,0,1,1,2,2,4,4,5,5,8,8,10,10],"right_children":[2,4,6,-1,8,10,-1,-1,12,-1,14,-1,-1,-1,-1],"split_conditions":[1.3701692E0,5.405405E-1,1.17186E0,-3.9722316E-2,4.390244E-1,6.111111E-1,-2.778496E-2,-3.6935713E-2,6.0818714E-1,6.700215E-2,4E0,3.424984E-2,-3.0780917E-2,-3.1534203E-3,3.645075E-2],"split_indices":[6,3,7,0,2,4,0,0,2,0,1,0,0,0,0],"split_type":[0,0,0,0,0,0,0,0,0,0,0,0,0,0,0],"sum_hessian":[2.9002943E1,1.9871746E1,9.131197E0,8.220755E0,1.16509905E1,7.8276625E0,1.3035346E0,3.5086935E0,8.142297E0,5.0346174E0,2.7930455E0,5.9851995E0,2.157097E0,1.5592448E0,1.2338006E0],"tree_param":{"num_deleted":"0","num_feature":"10","num_nodes":"15","size_leaf_vector":"1"}},{"base_weights":[2.058179E-2,-2.4082157E-1,3.3945632E-1,-4.743209E-1,4.3549198E-1,-3.7721038E-2,6.314426E-2,-4.2561706E-2,3.330213E-3,6.356213E-2,-2.747439E-2],"categories":[],"categories_nodes":[],"categories_segments":[],"categories_sizes":[],"default_left":[0,0,0,0,0,0,0,0,0,0,0],"id":71,"left_children":[1,3,5,7,9,-1,-1,-1,-1,-1,-1],"loss_changes":[2.8611069E0,3.1924942E0,6.0032816E0,4.548316E-1,1.775756E0,0E0,0E0,0E0,0E0,0E0,0E0],"parents":[2147483647,0,0,1,1,2,2,3,3,4,4],"right_children":[2,4,6,8,10,-1,-1,-1,-1,-1,-1],"split_conditions":[5E-1,1.4026444E0,1.8E1,5E0,1.58E2,-3.7721038E-2,6.314426E-2,-4.2561706E-2,3.330213E-3,6.356213E-2,-2.747439E-2],"split_indices":[9,7,0,1,0,0,0,0,0,0,0],"split_type":[0,0,0,0,0,0,0,0,0,0,0],"sum_hessian":[3.234368E1,1.7908022E1,1.4435658E1,1.3534025E1,4.3739963E0,5.1333175E0,9.3023405E0,1.2144688E1,1.3893375E0,2.9802516E0,1.3937447E0],"tree_param":{"num_deleted":"0","num_feature":"10","num_nodes":"11","size_leaf_vector":"1"}},{"base_weights":[-2.7015777E-2,-2.7505666E-1,5.115279E-1,4.8927885E-1,-4.4249982E-1,5.0557427E-2,-3.480334E-2,4.7641497E-2,5.7780305E-3,2.0806545E-2,-5.066776E-1,4.1786367E-3,-4.508824E-2],"categories":[],"categories_nodes":[],"categories_segments":[],"categories_sizes":[],"default_left":[0,0,0,0,0,0,0,0,0,0,0,0,0],"id":72,"left_children":[1,3,5,7,9,-1,-1,-1,-1,-1,11,-1,-1],"loss_changes":[6.40441E0,4.40853E0,2.0005298E0,2.3882937E-1,1.3669591E0,0E0,0E0,0E0,0E0,0E0,8.388419E-1,0E0,0E0],"parents":[2147483647,0,0,1,1,2,2,3,3,4,4,10,10],"right_children":[2,4,6,8,10,-1,-1,-1,-1,-1,12,-1,-1],"split_conditions":[6.6935486E-1,1.265E-1,3E0,2.0638333E-1,4.8127538E-1,5.0557427E-2,-3.480334E-2,4.7641497E-2,5.7780305E-3,2.0806545E-2,3.2894737E-1,4.1786367E-3,-4.508824E-2],"split_indices":[2,9,1,8,6,0,0,0,0,0,2,0,0],"split_type":[0,0,0,0,0,0,0,0,0,0,0,0,0],"sum_hessian":[4.589079E1,3.1754602E1,1.4136184E1,5.3609896E0,2.6393614E1,1.283539E1,1.3007934E0,3.93155E0,1.4294395E0,1.9536505E0,2.4439964E1,2.266751E0,2.2173212E1],"tree_param":{"num_deleted":"0","num_feature":"10","num_nodes":"13","size_leaf_vector":"1"}},{"base_weights":[2.0387832E-2,4.1375098E-1,-3.8601074E-2,-2.454733E-2,5.205879E-1,-7.1409516E-2,6.730854E-1,1.3483673E-2,-2.2883454E-2,3.174374E-2,8.411525E-2],"categories":[],"categories_nodes":[],"categories_segments":[],"categories_sizes":[],"default_left":[0,0,0,0,0,0,0,0,0,0,0],"id":73,"left_children":[1,3,-1,-1,5,7,9,-1,-1,-1,-1],"loss_changes":[4.3751974E0,1.1129766E0,0E0,0E0,1.0550327E0,2.1244317E-1,5.199785E-1,0E0,0E0,0E0,0E0],"parents":[2147483647,0,0,1,1,4,4,5,5,6,6],"right_children":[2,4,-1,-1,6,8,10,-1,-1,-1,-1],"split_conditions":[5.16129E-1,3.655914E-1,-3.8601074E-2,-2.454733E-2,1.575E-1,1.21E-1,8.5E1,1.3483673E-2,-2.2883454E-2,3.174374E-2,8.411525E-2],"split_indices":[2,2,0,0,9,9,0,0,0,0,0],"split_type":[0,0,0,0,0,0,0,0,0,0,0],"sum_hessian":[2.010756E1,1.1381985E1,8.725575E0,1.2279134E0,1.0154072E1,2.1888103E0,7.965261E0,1.1348274E0,1.0539829E0,5.787651E0,2.17761E0],"tree_param":{"num_deleted":"0","num_feature":"10","num_nodes":"11","size_leaf_vector":"1"}},{"base_weights":[1.983837E-3,6.3663125E-2,-3.2802586E-2],"categories":[],"categories_nodes":[],"categories_segments":[],"categories_sizes":[],"default_left":[0,0,0],"id":74,"left_children":[1,-1,-1],"loss_changes":[2.494465E0,0E0,0E0],"parents":[2147483647,0,0],"right_children":[2,-1,-1],"split_conditions":[3.655914E-1,6.3663125E-2,-3.2802586E-2],"split_indices":[2,0,0],"split_type":[0,0,0],"sum_hessian":[5.629248E0,1.6051867E0,4.024061E0],"tree_param":{"num_deleted":"0","num_feature":"10","num_nodes":"3","size_leaf_vector":"1"}},{"base_weights":[-1.5713128E-1,1.9274365E-2,-2.8251413E-2],"categories":[],"categories_nodes":[],"categories_segments":[],"categories_sizes":[],"default_left":[0,0,0],"id":75,"left_children":[1,-1,-1],"loss_changes":[4.197446E-1,0E0,0E0],"parents":[2147483647,0,0],"right_children":[2,-1,-1],"split_conditions":[4.5652175E-1,1.9274365E-2,-2.8251413E-2],"split_indices":[2,0,0],"split_type":[0,0,0],"sum_hessian":[3.2891946E0,1.0096439E0,2.2795506E0],"tree_param":{"num_deleted":"0","num_feature":"10","num_nodes":"3","size_leaf_vector":"1"}},{"base_weights":[7.0096746E-2,-1.5780456E-1,5.213555E-1,-3.9348833E-2,8.3114415E-2,7.1589345E-1,-2.9470986E-2,5.270735E-1,-1.9287366E-1,1.926956E-2,6.435954E-2,-8.191836E-3,7.451663E-2,4.2661293E-3,-3.5467535E-2],"categories":[],"categories_nodes":[],"categories_segments":[],"categories_sizes":[],"default_left":[0,0,0,0,0,0,0,0,0,0,0,0,0,0,0],"id":76,"left_children":[1,3,5,-1,7,9,-1,11,13,-1,-1,-1,-1,-1,-1],"loss_changes":[3.2240534E0,1.7362664E0,2.078324E0,0E0,1.7060965E0,1.8258715E-1,0E0,1.4413342E0,5.667279E-1,0E0,0E0,0E0,0E0,0E0,0E0],"parents":[2147483647,0,0,1,1,2,2,4,4,5,5,7,7,8,8],"right_children":[2,4,6,-1,8,10,-1,12,14,-1,-1,-1,-1,-1,-1],"split_conditions":[1.3701692E0,5.405405E-1,9.2E1,-3.9348833E-2,5.2454E-1,3.9506173E-1,-2.9470986E-2,4.5945945E-1,1.5819085E-1,1.926956E-2,6.435954E-2,-8.191836E-3,7.451663E-2,4.2661293E-3,-3.5467535E-2],"split_indices":[6,3,0,0,7,2,0,2,8,0,0,0,0,0,0],"split_type":[0,0,0,0,0,0,0,0,0,0,0,0,0,0,0],"sum_hessian":[2.9549452E1,2.0065819E1,9.483632E0,7.971297E0,1.2094522E1,7.942448E0,1.5411843E0,4.287618E0,7.8069043E0,1.8330957E0,6.1093526E0,1.9691646E0,2.3184536E0,4.333944E0,3.4729605E0],"tree_param":{"num_deleted":"0","num_feature":"10","num_nodes":"15","size_leaf_vector":"1"}},{"base_weights":[2.0597087E-2,-3.749813E-1,2.1990821E-1,1.3164426E-1,-4.1340183E-2,-3.776338E-2,4.6162906E-1,4.3266557E-2,-2.5560282E-2,-3.1290554E-2,6.109827E-1,5.963942E-2,-2.7126307E-2],"categories":[],"categories_nodes":[],"categories_segments":[],"categories_sizes":[],"default_left":[0,0,0,0,0,0,0,0,0,0,0,0,0],"id":77,"left_children":[1,3,5,7,-1,-1,9,-1,-1,-1,11,-1,-1],"loss_changes":[2.721159E0,8.9994776E-1,4.0456333E0,7.874363E-1,0E0,0E0,2.4634757E0,0E0,0E0,0E0,2.202013E0,0E0,0E0],"parents":[2147483647,0,0,1,1,2,2,3,3,6,6,10,10],"right_children":[2,4,6,8,-1,-1,10,-1,-1,-1,12,-1,-1],"split_conditions":[5.4545456E-1,6.1904764E-1,1.8E1,5.9090906E-1,-4.1340183E-2,-3.776338E-2,1.5561193E-1,4.3266557E-2,-2.5560282E-2,-3.1290554E-2,7.4050635E-1,5.963942E-2,-2.7126307E-2],"split_indices":[2,3,0,4,0,0,8,0,0,0,2,0,0],"split_type":[0,0,0,0,0,0,0,0,0,0,0,0,0],"sum_hessian":[3.246767E1,1.0582632E1,2.1885036E1,2.3294952E0,8.253137E0,5.419197E0,1.646584E1,1.1173111E0,1.2121841E0,2.2127755E0,1.4253064E1,1.2673997E1,1.579067E0],"tree_param":{"num_deleted":"0","num_feature":"10","num_nodes":"13","size_leaf_vector":"1"}},{"base_weights":[-1.9049775E-2,-2.941998E-1,5.093143E-1,4.518868E-1,-4.53831E-1,4.9661532E-2,-3.3882752E-2,4.7313576E-3,4.5177843E-2,2.042976E-2,-5.239044E-1,-1.0042695E-2,-4.6414487E-2],"categories":[],"categories_nodes":[],"categories_segments":[],"categories_sizes":[],"default_left":[0,0,0,0,0,0,0,0,0,0,0,0,0],"id":78,"left_children":[1,3,5,7,9,-1,-1,-1,-1,-1,11,-1,-1],"loss_changes":[6.6703386E0,3.7931406E0,1.8978353E0,2.2411454E-1,1.3918967E0,0E0,0E0,0E0,0E0,0E0,4.510374E-1,0E0,0E0],"parents":[2147483647,0,0,1,1,2,2,3,3,4,4,10,10],"right_children":[2,4,6,8,10,-1,-1,-1,-1,-1,12,-1,-1],"split_conditions":[6.6935486E-1,1.265E-1,3E0,4.090909E-1,4.8127538E-1,4.9661532E-2,-3.3882752E-2,4.7313576E-3,4.5177843E-2,2.042976E-2,3.2894737E-1,-1.0042695E-2,-4.6414487E-2],"split_indices":[2,9,1,2,6,0,0,0,0,0,2,0,0],"split_type":[0,0,0,0,0,0,0,0,0,0,0,0,0],"sum_hessian":[4.385161E1,2.912678E1,1.4724827E1,4.810867E0,2.4315914E1,1.3452138E1,1.2726891E0,1.4138552E0,3.3970115E0,1.9487303E0,2.2367184E1,3.1685278E0,1.9198654E1],"tree_param":{"num_deleted":"0","num_feature":"10","num_nodes":"13","size_leaf_vector":"1"}},{"base_weights":[4.263921E-2,3.5283044E-1,-3.7906814E-2,-9.5768146E-2,5.1525885E-1,-3.4910526E-2,3.6621563E-2,-2.6290622E-2,6.5215E-1,1.574492E-2,6.6002466E-2],"categories":[],"categories_nodes":[],"categories_segments":[],"categories_sizes":[],"default_left":[0,0,0,0,0,0,0,0,0,0,0],"id":79,"left_children":[1,3,-1,5,7,-1,-1,-1,9,-1,-1],"loss_changes":[3.8482206E0,1.1371086E0,0E0,1.1069665E0,1.4985406E0,0E0,0E0,0E0,6.1696434E-1,0E0,0E0],"parents":[2147483647,0,0,1,1,3,3,4,4,8,8],"right_children":[2,4,-1,6,8,-1,-1,-1,10,-1,-1],"split_conditions":[5.4545456E-1,4.084507E-1,-3.7906814E-2,8.7E1,4.993468E-1,-3.4910526E-2,3.6621563E-2,-2.6290622E-2,4.5E1,1.574492E-2,6.6002466E-2],"split_indices":[2,2,0,0,6,0,0,0,0,0,0],"split_type":[0,0,0,0,0,0,0,0,0,0,0],"sum_hessian":[2.1976927E1,1.3928442E1,8.048485E0,3.8116732E0,1.0116769E1,2.4906986E0,1.3209746E0,1.2165326E0,8.900236E0,3.0377486E0,5.8624873E0],"tree_param":{"num_deleted":"0","num_feature":"10","num_nodes":"11","size_leaf_vector":"1"}},{"base_weights":[-4.054638E-2,5.2740425E-2,-3.3173613E-2],"categories":[],"categories_nodes":[],"categories_segments":[],"categories_sizes":[],"default_left":[0,0,0],"id":80,"left_children":[1,-1,-1],"loss_changes":[2.1529117E0,0E0,0E0],"parents":[2147483647,0,0],"right_children":[2,-1,-1],"split_conditions":[3.655914E-1,5.2740425E-2,-3.3173613E-2],"split_indices":[2,0,0],"split_type":[0,0,0],"sum_hessian":[6.1789484E0,1.8870584E0,4.2918897E0],"tree_param":{"num_deleted":"0","num_feature":"10","num_nodes":"3","size_leaf_vector":"1"}},{"base_weights":[9.537215E-2,-2.6578285E-2,4.88657E-2],"categories":[],"categories_nodes":[],"categories_segments":[],"categories_sizes":[],"default_left":[0,0,0],"id":81,"left_children":[1,-1,-1],"loss_changes":[1.1180575E0,0E0,0E0],"parents":[2147483647,0,0],"right_children":[2,-1,-1],"split_conditions":[1.379892E0,-2.6578285E-2,4.88657E-2],"split_indices":[6,0,0],"split_type":[0,0,0],"sum_hessian":[3.1519895E0,1.9170892E0,1.2349002E0],"tree_param":{"num_deleted":"0","num_feature":"10","num_nodes":"3","size_leaf_vector":"1"}},{"base_weights":[3.6434454E-3,5.4687545E-2,-1.2871249E-1,-2.3951918E-1,6.314132E-2,-4.1027088E-2,-8.247679E-3,6.536006E-2,-1.6906133E-2],"categories":[],"categories_nodes":[],"categories_segments":[],"categories_sizes":[],"default_left":[0,0,0,0,0,0,0,0,0],"id":82,"left_children":[1,-1,3,5,-1,-1,7,-1,-1],"loss_changes":[2.702791E0,0E0,2.7485006E0,1.4634837E0,0E0,0E0,2.4507837E0,0E0,0E0],"parents":[2147483647,0,0,2,2,3,3,6,6],"right_children":[2,-1,4,6,-1,-1,8,-1,-1],"split_conditions":[4E0,5.4687545E-2,6.7741936E-1,4.9913E-1,6.314132E-2,-4.1027088E-2,5.2454E-1,6.536006E-2,-1.6906133E-2],"split_indices":[0,0,4,7,0,0,7,0,0],"split_type":[0,0,0,0,0,0,0,0,0],"sum_hessian":[2.8054817E1,3.8925967E0,2.416222E1,2.2219273E1,1.9429468E0,9.625852E0,1.2593422E1,1.8899987E0,1.07034235E1],"tree_param":{"num_deleted":"0","num_feature":"10","num_nodes":"9","size_leaf_vector":"1"}},{"base_weights":[-3.0168898E-2,2.9450172E-1,-2.8949663E-1,-3.473958E-2,5.557876E-1,-4.6913904E-1,2.7190122E-1,5.783776E-2,-2.6434774E-2,-4.185164E-2,-6.531969E-3,5.4779813E-2,-2.9883938E-2],"categories":[],"categories_nodes":[],"categories_segments":[],"categories_sizes":[],"default_left":[0,0,0,0,0,0,0,0,0,0,0,0,0],"id":83,"left_children":[1,3,5,-1,7,9,11,-1,-1,-1,-1,-1,-1],"loss_changes":[2.8238027E0,3.085897E0,2.002056E0,0E0,1.9331262E0,2.596364E-1,1.6251554E0,0E0,0E0,0E0,0E0,0E0,0E0],"parents":[2147483647,0,0,1,1,2,2,4,4,5,5,6,6],"right_children":[2,4,6,-1,8,10,12,-1,-1,-1,-1,-1,-1],"split_conditions":[8.8E-2,1.4E1,1.4026444E0,-3.473958E-2,6.6935486E-1,5E0,1.58E2,5.783776E-2,-2.6434774E-2,-4.185164E-2,-6.531969E-3,5.4779813E-2,-2.9883938E-2],"split_indices":[7,0,7,0,2,1,0,0,0,0,0,0,0],"split_type":[0,0,0,0,0,0,0,0,0,0,0,0,0],"sum_hessian":[3.1525797E1,1.3938977E1,1.7586819E1,3.5040264E0,1.0434951E1,1.3447936E1,4.1388836E0,8.933811E0,1.5011393E0,1.1495638E1,1.952298E0,2.4871535E0,1.6517301E0],"tree_param":{"num_deleted":"0","num_feature":"10","num_nodes":"13","size_leaf_vector":"1"}},{"base_weights":[-1.4541436E-2,-2.6496488E-1,4.9818927E-1,2.3992233E-1,-5.0145483E-1,4.859878E-2,-3.3249393E-2,3.6419755E-1,-1.8158853E-2,-2.62823E-1,-4.7218837E-2,4.182581E-2,-8.9015225E-3,-3.7706356E-2,2.0672493E-2],"categories":[],"categories_nodes":[],"categories_segments":[],"categories_sizes":[],"default_left":[0,0,0,0,0,0,0,0,0,0,0,0,0,0,0],"id":84,"left_children":[1,3,5,7,9,-1,-1,11,-1,13,-1,-1,-1,-1,-1],"loss_changes":[6.0521765E0,3.8969994E0,1.7982438E0,7.073699E-1,3.080864E-1,0E0,0E0,7.284273E-1,0E0,9.6204203E-1,0E0,0E0,0E0,0E0,0E0],"parents":[2147483647,0,0,1,1,2,2,3,3,4,4,7,7,9,9],"right_children":[2,4,6,8,10,-1,-1,12,-1,14,-1,-1,-1,-1,-1],"split_conditions":[6.6935486E-1,9.623074E-1,3E0,2.7380952E-1,1.76E-1,4.859878E-2,-3.3249393E-2,4.5833334E-1,-1.8158853E-2,1.725E-1,-4.7218837E-2,4.182581E-2,-8.9015225E-3,-3.7706356E-2,2.0672493E-2],"split_indices":[2,6,1,4,9,0,0,2,0,9,0,0,0,0,0],"split_type":[0,0,0,0,0,0,0,0,0,0,0,0,0,0,0],"sum_hessian":[4.5107346E1,3.0630362E1,1.4476985E1,9.766068E0,2.0864292E1,1.322985E1,1.2471354E0,7.886837E0,1.8792312E0,6.7314157E0,1.4132877E1,5.8391743E0,2.0476627E0,4.8764367E0,1.8549787E0],"tree_param":{"num_deleted":"0","num_feature":"10","num_nodes":"15","size_leaf_vector":"1"}},{"base_weights":[1.055358E-2,-2.928488E-1,4.8513493E-1,-3.8412824E-2,1.3413021E-1,-9.647467E-3,6.750451E-1,-1.6165026E-1,4.969522E-2,8.3044803E-1,2.8790822E-3,-2.9629847E-2,1.6452434E-2,2.3560597E-2,7.664139E-2],"categories":[],"categories_nodes":[],"categories_segments":[],"categories_sizes":[],"default_left":[0,0,0,0,0,0,0,0,0,0,0,0,0,0,0],"id":85,"left_children":[1,3,5,-1,7,-1,9,11,-1,13,-1,-1,-1,-1,-1],"loss_changes":[3.1310232E0,1.1270224E0,1.0559517E0,0E0,7.966678E-1,0E0,6.256919E-1,3.6753035E-1,0E0,7.780123E-2,0E0,0E0,0E0,0E0,0E0],"parents":[2147483647,0,0,1,1,2,2,4,4,6,6,7,7,9,9],"right_children":[2,4,6,-1,8,-1,10,12,-1,14,-1,-1,-1,-1,-1],"split_conditions":[5.344828E-1,7.8571427E-1,3.970588E-1,-3.8412824E-2,9.3E1,-9.647467E-3,6.7741936E-1,2.0333834E-1,4.969522E-2,5.529412E-1,2.8790822E-3,-2.9629847E-2,1.6452434E-2,2.3560597E-2,7.664139E-2],"split_indices":[4,3,2,0,0,0,4,8,0,4,0,0,0,0,0],"split_type":[0,0,0,0,0,0,0,0,0,0,0,0,0,0,0],"sum_hessian":[1.975818E1,1.2286371E1,7.4718094E0,8.453396E0,3.832975E0,1.8705597E0,5.6012497E0,2.800441E0,1.0325338E0,4.2646904E0,1.3365594E0,1.7803816E0,1.0200596E0,1.4560754E0,2.808615E0],"tree_param":{"num_deleted":"0","num_feature":"10","num_nodes":"15","size_leaf_vector":"1"}},{"base_weights":[8.618702E-2,8.480122E-1,-3.2811392E-2,8.658281E-2,1.4878647E-2],"categories":[],"categories_nodes":[],"categories_segments":[],"categories_sizes":[],"default_left":[0,0,0,0,0],"id":86,"left_children":[1,3,-1,-1,-1],"loss_changes":[3.1013484E0,2.948277E-1,0E0,0E0,0E0],"parents":[2147483647,0,0,1,1],"right_children":[2,4,-1,-1,-1],"split_conditions":[3.655914E-1,1.715E-1,-3.2811392E-2,8.658281E-2,1.4878647E-2],"split_indices":[2,9,0,0,0],"split_type":[0,0,0,0,0],"sum_hessian":[6.282264E0,2.1987677E0,4.0834966E0,1.1551821E0,1.0435855E0],"tree_param":{"num_deleted":"0","num_feature":"10","num_nodes":"5","size_leaf_vector":"1"}},{"base_weights":[-1.3732442E-1,-2.7230153E-2,1.913506E-2],"categories":[],"categories_nodes":[],"categories_segments":[],"categories_sizes":[],"default_left":[0,0,0],"id":87,"left_children":[1,-1,-1],"loss_changes":[3.9191234E-1,0E0,0E0],"parents":[2147483647,0,0],"right_children":[2,-1,-1],"split_conditions":[1.5295554E0,-2.7230153E-2,1.913506E-2],"split_indices":[6,0,0],"split_type":[0,0,0],"sum_hessian":[3.0613568E0,2.0511506E0,1.0102063E0],"tree_param":{"num_deleted":"0","num_feature":"10","num_nodes":"3","size_leaf_vector":"1"}},{"base_weights":[4.3935034E-2,-1.6489477E-1,5.34169E-1,-4.330183E-1,1.7886543E-1,5.9465706E-2,-1.035624E-1,-2.0846733E-1,-3.9034657E-2,-2.8229894E-2,3.2087484E-1,1.2866766E-2,-2.4816949E-2,-3.0800458E-2,1.202694E-2,3.797135E-2,-2.6646752E-2],"categories":[],"categories_nodes":[],"categories_segments":[],"categories_sizes":[],"default_left":[0,0,0,0,0,0,0,0,0,0,0,0,0,0,0,0,0],"id":88,"left_children":[1,3,5,7,9,-1,11,13,-1,-1,15,-1,-1,-1,-1,-1,-1],"loss_changes":[3.0360756E0,2.0091443E0,1.2558212E0,4.7077656E-2,8.60139E-1,0E0,2.1710601E-1,3.1866425E-1,0E0,0E0,9.957591E-1,0E0,0E0,0E0,0E0,0E0,0E0],"parents":[2147483647,0,0,1,1,2,2,3,3,4,4,6,6,7,7,10,10],"right_children":[2,4,6,8,10,-1,12,14,-1,-1,16,-1,-1,-1,-1,-1,-1],"split_conditions":[1.5609119E0,2.1621622E-1,5.579E-1,1.5819085E-1,4.8387095E-1,5.9465706E-2,1.7700303E0,1.2666667E-1,-3.9034657E-2,-2.8229894E-2,6.282E-1,1.2866766E-2,-2.4816949E-2,-3.0800458E-2,1.202694E-2,3.797135E-2,-2.6646752E-2],"split_indices":[6,4,7,8,3,0,6,8,0,0,7,0,0,0,0,0,0],"split_type":[0,0,0,0,0,0,0,0,0,0,0,0,0,0,0,0,0],"sum_hessian":[2.7795898E1,1.9957884E1,7.838016E0,1.1066593E1,8.891291E0,5.777604E0,2.0604117E0,3.1170292E0,7.9495635E0,1.5610907E0,7.3301997E0,1.0011706E0,1.059241E0,2.0401914E0,1.0768378E0,6.15675E0,1.1734498E0],"tree_param":{"num_deleted":"0","num_feature":"10","num_nodes":"17","size_leaf_vector":"1"}},{"base_weights":[-8.926167E-3,-3.9049733E-2,1.3504176E-1,3.337867E-1,-3.9513636E-2,-3.297157E-2,4.9732968E-1,5.167703E-2,-3.0904712E-2],"categories":[],"categories_nodes":[],"categories_segments":[],"categories_sizes":[],"default_left":[0,0,0,0,0,0,0,0,0],"id":89,"left_children":[1,-1,3,5,-1,-1,7,-1,-1],"loss_changes":[2.245554E0,0E0,3.299725E0,2.6025186E0,0E0,0E0,2.4261284E0,0E0,0E0],"parents":[2147483647,0,0,2,2,3,3,6,6],"right_children":[2,-1,4,6,-1,-1,8,-1,-1],"split_conditions":[1E0,-3.9049733E-2,1.3701692E0,1.8E1,-3.9513636E-2,-3.297157E-2,4.390244E-1,5.167703E-2,-3.0904712E-2],"split_indices":[6,0,6,0,0,0,4,0,0],"split_type":[0,0,0,0,0,0,0,0,0],"sum_hessian":[3.059408E1,6.515806E0,2.4078274E1,1.8653336E1,5.4249377E0,3.0809233E0,1.55724125E1,1.3560441E1,2.0119715E0],"tree_param":{"num_deleted":"0","num_feature":"10","num_nodes":"9","size_leaf_vector":"1"}},{"base_weights":[-3.557595E-2,2.628779E-1,-3.846571E-1,-6.748828E-2,5.0753194E-1,3.1459585E-2,-4.689338E-1,4.0553138E-1,-4.2582136E-2,1.5485357E-3,4.4856455E-2,-2.3463048E-1,-5.338731E-1,4.501478E-2,1.5180007E-2,-2.8578622E-2,1.3272871E-2,-4.631029E-2,-6.527173E-3],"categories":[],"categories_nodes":[],"categories_segments":[],"categories_sizes":[],"default_left":[0,0,0,0,0,0,0,0,0,0,0,0,0,0,0,0,0,0,0],"id":90,"left_children":[1,3,5,7,9,-1,11,13,-1,-1,-1,15,17,-1,-1,-1,-1,-1,-1],"loss_changes":[4.4657426E0,1.9076505E0,1.4768913E0,2.5780375E0,3.3786774E-1,0E0,1.5232658E-1,9.305251E-2,0E0,0E0,0E0,3.4130272E-1,2.2757864E-1,0E0,0E0,0E0,0E0,0E0,0E0],"parents":[2147483647,0,0,1,1,2,2,3,3,4,4,6,6,7,7,11,11,12,12],"right_children":[2,4,6,8,10,-1,12,14,-1,-1,-1,16,18,-1,-1,-1,-1,-1,-1],"split_conditions":[1.0986835E0,2.015625E-1,1.2666667E-1,1.6325E-1,4.090909E-1,3.1459585E-2,4.5652175E-1,4.375E-1,-4.2582136E-2,1.5485357E-3,4.4856455E-2,3.970588E-1,1.64384E0,4.501478E-2,1.5180007E-2,-2.8578622E-2,1.3272871E-2,-4.631029E-2,-6.527173E-3],"split_indices":[6,8,8,9,2,0,2,2,0,0,0,2,7,0,0,0,0,0,0],"split_type":[0,0,0,0,0,0,0,0,0,0,0,0,0,0,0,0,0,0,0],"sum_hessian":[4.0893177E1,2.2178324E1,1.8714853E1,9.744322E0,1.2434002E1,1.4709917E0,1.7243862E1,4.892584E0,4.8517375E0,1.3553058E0,1.1078696E1,4.74322E0,1.2500642E1,1.9006667E0,2.9919171E0,3.714399E0,1.0288206E0,1.1114739E1,1.3859023E0],"tree_param":{"num_deleted":"0","num_feature":"10","num_nodes":"19","size_leaf_vector":"1"}},{"base_weights":[1.3345561E-2,2.7979738E-1,-3.6862135E-2,6.6885203E-1,3.8040906E-2,8.440051E-3,6.314717E-2,5.6778634E-1,-3.7164718E-1,-3.247523E-3,7.78501E-2,-3.9921694E-2,6.0031163E-3],"categories":[],"categories_nodes":[],"categories_segments":[],"categories_sizes":[],"default_left":[0,0,0,0,0,0,0,0,0,0,0,0,0],"id":91,"left_children":[1,3,-1,5,7,-1,-1,9,11,-1,-1,-1,-1],"loss_changes":[2.736779E0,1.2761167E0,0E0,2.7260923E-1,2.293418E0,0E0,0E0,1.1689323E0,3.7967604E-1,0E0,0E0,0E0,0E0],"parents":[2147483647,0,0,1,1,3,3,4,4,7,7,8,8],"right_children":[2,4,-1,6,8,-1,-1,10,12,-1,-1,-1,-1],"split_conditions":[5.4545456E-1,4.9776E-1,-3.6862135E-2,1.75E-1,7.133538E-1,8.440051E-3,6.314717E-2,6.9314E-1,9E1,-3.247523E-3,7.78501E-2,-3.9921694E-2,6.0031163E-3],"split_indices":[2,7,0,9,6,0,0,7,0,0,0,0,0],"split_type":[0,0,0,0,0,0,0,0,0,0,0,0,0],"sum_hessian":[1.9643076E1,1.2838073E1,6.805002E0,4.243095E0,8.594977E0,1.0780734E0,3.1650214E0,3.5799892E0,5.0149884E0,1.7912817E0,1.7887075E0,3.8110828E0,1.2039058E0],"tree_param":{"num_deleted":"0","num_feature":"10","num_nodes":"13","size_leaf_vector":"1"}},{"base_weights":[-1.6642258E-2,4.725619E-2,-3.2216426E-2],"categories":[],"categories_nodes":[],"categories_segments":[],"categories_sizes":[],"default_left":[0,0,0],"id":92,"left_children":[1,-1,-1],"loss_changes":[1.8271037E0,0E0,0E0],"parents":[2147483647,0,0],"right_children":[2,-1,-1],"split_conditions":[3.655914E-1,4.725619E-2,-3.2216426E-2],"split_indices":[2,0,0],"split_type":[0,0,0],"sum_hessian":[5.777848E0,2.0394187E0,3.738429E0],"tree_param":{"num_deleted":"0","num_feature":"10","num_nodes":"3","size_leaf_vector":"1"}},{"base_weights":[-1.0172019E-1,-2.5583323E-2,1.952333E-2],"categories":[],"categories_nodes":[],"categories_segments":[],"categories_sizes":[],"default_left":[0,0,0],"id":93,"left_children":[1,-1,-1],"loss_changes":[3.576076E-1,0E0,0E0],"parents":[2147483647,0,0],"right_children":[2,-1,-1],"split_conditions":[2.5373134E-1,-2.5583323E-2,1.952333E-2],"split_indices":[4,0,0],"split_type":[0,0,0],"sum_hessian":[2.7077236E0,1.7065291E0,1.0011946E0],"tree_param":{"num_deleted":"0","num_feature":"10","num_nodes":"3","size_leaf_vector":"1"}},{"base_weights":[4.5856647E-2,5.254024E-2,-9.5715314E-2,9.1176756E-2,-3.8406532E-2,-2.2728224E-1,2.649654E-1,-3.6092017E-2,1.0664429E-2,-1.1392603E-2,3.8850404E-2],"categories":[],"categories_nodes":[],"categories_segments":[],"categories_sizes":[],"default_left":[0,0,0,0,0,0,0,0,0,0,0],"id":94,"left_children":[1,-1,3,5,-1,7,9,-1,-1,-1,-1],"loss_changes":[2.613717E0,0E0,1.8265816E0,1.0309125E0,0E0,6.034504E-1,1.1306646E0,0E0,0E0,0E0,0E0],"parents":[2147483647,0,0,2,2,3,3,5,5,6,6],"right_children":[2,-1,4,6,-1,8,10,-1,-1,-1,-1],"split_conditions":[4E0,5.254024E-2,6.0818714E-1,4.390244E-1,-3.8406532E-2,1.2321795E0,5.405405E-1,-3.6092017E-2,1.0664429E-2,-1.1392603E-2,3.8850404E-2],"split_indices":[0,0,2,2,0,6,3,0,0,0,0],"split_type":[0,0,0,0,0,0,0,0,0,0,0],"sum_hessian":[2.8494507E1,4.676399E0,2.3818108E1,1.6539045E1,7.2790627E0,5.7304583E0,1.0808587E1,3.3805296E0,2.3499286E0,3.9222658E0,6.886321E0],"tree_param":{"num_deleted":"0","num_feature":"10","num_nodes":"11","size_leaf_vector":"1"}},{"base_weights":[-2.2466198E-2,-3.617327E-1,1.6196544E-1,9.9549785E-2,-4.0353075E-2,4.0458807E-1,-3.698733E-1,-2.6186131E-2,4.2345274E-2,5.773431E-1,-3.109964E-2,2.1595613E-3,-3.6512338E-2,2.5111595E-3,5.544094E-2],"categories":[],"categories_nodes":[],"categories_segments":[],"categories_sizes":[],"default_left":[0,0,0,0,0,0,0,0,0,0,0,0,0,0,0],"id":95,"left_children":[1,3,5,7,-1,9,11,-1,-1,13,-1,-1,-1,-1,-1],"loss_changes":[1.9404579E0,7.676772E-1,2.7528858E0,7.98928E-1,0E0,2.1886523E0,2.473067E-1,0E0,0E0,7.468686E-1,0E0,0E0,0E0,0E0,0E0],"parents":[2147483647,0,0,1,1,2,2,3,3,5,5,6,6,9,9],"right_children":[2,4,6,8,-1,10,12,-1,-1,14,-1,-1,-1,-1,-1],"split_conditions":[5.4545456E-1,6.1904764E-1,7.126437E-1,4.9564E-1,-4.0353075E-2,1.3701692E0,1.3277778E-1,-2.6186131E-2,4.2345274E-2,1.5819085E-1,-3.109964E-2,2.1595613E-3,-3.6512338E-2,2.5111595E-3,5.544094E-2],"split_indices":[2,3,2,7,0,6,9,0,0,8,0,0,0,0,0],"split_type":[0,0,0,0,0,0,0,0,0,0,0,0,0,0,0],"sum_hessian":[2.9075523E1,9.90102E0,1.9174503E1,2.4104378E0,7.490582E0,1.333184E1,5.8426647E0,1.328867E0,1.0815709E0,1.1171425E1,2.1604147E0,1.1690302E0,4.6736345E0,2.1753228E0,8.996102E0],"tree_param":{"num_deleted":"0","num_feature":"10","num_nodes":"15","size_leaf_vector":"1"}},{"base_weights":[-3.4541976E-2,-2.6866823E-1,4.6899343E-1,-4.78692E-1,1.9962062E-1,4.6675514E-2,-3.268378E-2,-4.5844935E-2,-2.4477287E-1,4.5492163E-1,-1.4911692E-1,-3.23367E-2,3.587038E-3,4.5869984E-2,2.5496467E-3,1.9234443E-2,-3.793407E-2],"categories":[],"categories_nodes":[],"categories_segments":[],"categories_sizes":[],"default_left":[0,0,0,0,0,0,0,0,0,0,0,0,0,0,0,0,0],"id":96,"left_children":[1,3,5,7,9,-1,-1,-1,11,13,15,-1,-1,-1,-1,-1,-1],"loss_changes":[5.2074013E0,3.0518186E0,1.6489265E0,3.2430792E-1,9.5927835E-1,0E0,0E0,0E0,3.7806877E-1,2.8377485E-1,7.4523354E-1,0E0,0E0,0E0,0E0,0E0,0E0],"parents":[2147483647,0,0,1,1,2,2,3,3,4,4,8,8,9,9,10,10],"right_children":[2,4,6,8,10,-1,-1,-1,12,14,16,-1,-1,-1,-1,-1,-1],"split_conditions":[6.6935486E-1,1E0,3E0,5.3865E-1,1.575E-1,4.6675514E-2,-3.268378E-2,-4.5844935E-2,1.715E-1,2.0638333E-1,4.625523E-1,-3.23367E-2,3.587038E-3,4.5869984E-2,2.5496467E-3,1.9234443E-2,-3.793407E-2],"split_indices":[2,3,1,7,9,0,0,0,9,8,6,0,0,0,0,0,0],"split_type":[0,0,0,0,0,0,0,0,0,0,0,0,0,0,0,0,0],"sum_hessian":[4.210256E1,2.9058033E1,1.3044527E1,2.004555E1,9.012483E0,1.1835992E1,1.208535E0,1.3250208E1,6.7953415E0,5.027505E0,3.9849775E0,4.127425E0,2.6679163E0,3.6501427E0,1.3773625E0,1.9311064E0,2.0538712E0],"tree_param":{"num_deleted":"0","num_feature":"10","num_nodes":"17","size_leaf_vector":"1"}},{"base_weights":[-4.680561E-2,-3.081894E-1,3.9818227E-1,3.0140015E-1,-3.905982E-2,5.4612386E-1,-2.5031187E-2,-1.91854E-3,4.5368083E-2,7.188042E-2,-2.3744548E-2,-3.4185845E-2,3.6120858E-2],"categories":[],"categories_nodes":[],"categories_segments":[],"categories_sizes":[],"default_left":[0,0,0,0,0,0,0,0,0,0,0,0,0],"id":97,"left_children":[1,3,5,7,-1,9,-1,-1,-1,-1,11,-1,-1],"loss_changes":[2.529836E0,1.6400212E0,1.0223753E0,3.3517948E-1,0E0,1.439971E0,0E0,0E0,0E0,0E0,8.9753515E-1,0E0,0E0],"parents":[2147483647,0,0,1,1,2,2,3,3,5,5,10,10],"right_children":[2,4,6,8,-1,10,-1,-1,-1,-1,12,-1,-1],"split_conditions":[5.344828E-1,9.729238E-2,6.7741936E-1,8.5E1,-3.905982E-2,4.9776E-1,-2.5031187E-2,-1.91854E-3,4.5368083E-2,7.188042E-2,5.8716E-1,-3.4185845E-2,3.6120858E-2],"split_indices":[4,8,4,0,0,7,0,0,0,0,7,0,0],"split_type":[0,0,0,0,0,0,0,0,0,0,0,0,0],"sum_hessian":[1.9695263E1,1.2600947E1,7.094316E0,2.7196484E0,9.881299E0,6.0645347E0,1.0297811E0,1.6314671E0,1.0881813E0,3.3910012E0,2.6735337E0,1.500333E0,1.1732008E0],"tree_param":{"num_deleted":"0","num_feature":"10","num_nodes":"13","size_leaf_vector":"1"}},{"base_weights":[1.0726445E-1,-2.758475E-1,9.300386E-2,-3.3527832E-2,1.582576E-2],"categories":[],"categories_nodes":[],"categories_segments":[],"categories_sizes":[],"default_left":[0,0,0,0,0],"id":98,"left_children":[1,3,-1,-1,-1],"loss_changes":[3.136012E0,4.844015E-1,0E0,0E0,0E0],"parents":[2147483647,0,0,1,1],"right_children":[2,4,-1,-1,-1],"split_conditions":[6E0,5.833333E-1,9.300386E-2,-3.3527832E-2,1.582576E-2],"split_indices":[1,4,0,0,0],"split_type":[0,0,0,0,0],"sum_hessian":[5.9635983E0,4.9170923E0,1.0465057E0,3.8637888E0,1.0533037E0],"tree_param":{"num_deleted":"0","num_feature":"10","num_nodes":"5","size_leaf_vector":"1"}},{"base_weights":[-1.2298276E-1,-2.6643869E-2,1.9399581E-2],"categories":[],"categories_nodes":[],"categories_segments":[],"categories_sizes":[],"default_left":[0,0,0],"id":99,"left_children":[1,-1,-1],"loss_changes":[3.8095778E-1,0E0,0E0],"parents":[2147483647,0,0],"right_children":[2,-1,-1],"split_conditions":[6.282E-1,-2.6643869E-2,1.9399581E-2],"split_indices":[7,0,0],"split_type":[0,0,0],"sum_hessian":[2.9101036E0,1.9042996E0,1.0058038E0],"tree_param":{"num_deleted":"0","num_feature":"10","num_nodes":"3","size_leaf_vector":"1"}},{"base_weights":[4.0869025E-4,4.9610905E-2,-1.2985621E-1,-3.4215578E-1,2.0499064E-1,-7.243439E-2,-3.9157357E-2,5.0753973E-2,-5.159963E-2,-2.2549836E-2,2.9641623E-2,-2.5221553E-2,3.551421E-2],"categories":[],"categories_nodes":[],"categories_segments":[],"categories_sizes":[],"default_left":[0,0,0,0,0,0,0,0,0,0,0,0,0],"id":100,"left_children":[1,-1,3,5,7,9,-1,-1,11,-1,-1,-1,-1],"loss_changes":[2.372387E0,0E0,1.7965443E0,5.699611E-1,1.1399586E0,7.1265084E-1,0E0,0E0,1.082617E0,0E0,0E0,0E0,0E0],"parents":[2147483647,0,0,2,2,3,3,4,4,5,5,8,8],"right_children":[2,-1,4,6,8,10,-1,-1,12,-1,-1,-1,-1],"split_conditions":[4E0,4.9610905E-2,4.390244E-1,1.5819085E-1,5.344828E-1,1.2666667E-1,-3.9157357E-2,5.0753973E-2,6.7741936E-1,-2.2549836E-2,2.9641623E-2,-2.5221553E-2,3.551421E-2],"split_indices":[0,0,4,8,4,8,0,0,4,0,0,0,0],"split_type":[0,0,0,0,0,0,0,0,0,0,0,0,0],"sum_hessian":[2.7389614E1,4.104086E0,2.3285528E1,1.4237098E1,9.04843E0,5.555992E0,8.681106E0,2.83358E0,6.2148504E0,4.0192547E0,1.5367377E0,4.29386E0,1.9209907E0],"tree_param":{"num_deleted":"0","num_feature":"10","num_nodes":"13","size_leaf_vector":"1"}},{"base_weights":[-5.1380277E-2,2.5513548E-1,-2.9736915E-1,-3.286832E-2,4.9536946E-1,-4.545508E-1,3.2112214E-1,-2.416569E-2,5.1608887E-2,-4.102336E-2,-5.7272133E-3,-3.4526906E-3,4.294413E-2],"categories":[],"categories_nodes":[],"categories_segments":[],"categories_sizes":[],"default_left":[0,0,0,0,0,0,0,0,0,0,0,0,0],"id":101,"left_children":[1,3,5,-1,7,9,11,-1,-1,-1,-1,-1,-1],"loss_changes":[2.187087E0,2.2841914E0,1.7009976E0,0E0,1.3902376E0,2.5699735E-1,3.238757E-1,0E0,0E0,0E0,0E0,0E0,0E0],"parents":[2147483647,0,0,1,1,2,2,4,4,5,5,6,6],"right_children":[2,4,6,-1,8,10,12,-1,-1,-1,-1,-1,-1],"split_conditions":[8.8E-2,1.4E1,1.4026444E0,-3.286832E-2,5.9758717E-1,5E0,1.5623687E-1,-2.416569E-2,5.1608887E-2,-4.102336E-2,-5.7272133E-3,-3.4526906E-3,4.294413E-2],"split_indices":[7,0,7,0,6,1,8,0,0,0,0,0,0],"split_type":[0,0,0,0,0,0,0,0,0,0,0,0,0],"sum_hessian":[2.7000431E1,1.2004712E1,1.4995719E1,2.994096E0,9.010616E0,1.2168353E1,2.8273656E0,1.2636796E0,7.746937E0,1.0267792E1,1.9005609E0,1.3489298E0,1.4784359E0],"tree_param":{"num_deleted":"0","num_feature":"10","num_nodes":"13","size_leaf_vector":"1"}},{"base_weights":[-3.4415446E-2,-2.5363725E-1,4.7613168E-1,5.192328E-2,-4.602529E-2,4.515406E-2,-1.3342986E-2,-3.0037624E-1,2.6348123E-1,-2.5746124E-3,-4.069531E-2,2.969122E-2,-1.2656902E-2],"categories":[],"categories_nodes":[],"categories_segments":[],"categories_sizes":[],"default_left":[0,0,0,0,0,0,0,0,0,0,0,0,0],"id":102,"left_children":[1,3,5,7,-1,-1,-1,9,11,-1,-1,-1,-1],"loss_changes":[4.550019E0,2.815333E0,7.887032E-1,1.2307035E0,0E0,0E0,0E0,3.3360815E-1,5.211658E-1,0E0,0E0,0E0,0E0],"parents":[2147483647,0,0,1,1,2,2,3,3,7,7,8,8],"right_children":[2,4,6,8,-1,-1,-1,10,12,-1,-1,-1,-1],"split_conditions":[6.6935486E-1,1.76E-1,7.5757575E-1,7.017544E-1,-4.602529E-2,4.515406E-2,-1.3342986E-2,6.25E-1,2.7380952E-1,-2.5746124E-3,-4.069531E-2,2.969122E-2,-1.2656902E-2],"split_indices":[2,9,3,3,0,0,0,3,4,0,0,0,0],"split_type":[0,0,0,0,0,0,0,0,0,0,0,0,0],"sum_hessian":[3.8574097E1,2.7338524E1,1.1235575E1,1.4450592E1,1.2887931E1,9.986224E0,1.2493508E0,5.264308E0,9.186284E0,2.8061037E0,2.4582045E0,7.413485E0,1.7727989E0],"tree_param":{"num_deleted":"0","num_feature":"10","num_nodes":"13","size_leaf_vector":"1"}},{"base_weights":[4.531676E-3,2.7330196E-1,-3.7059117E-2,-2.5357801E-2,3.6489332E-1,1.0346259E-1,5.7284474E-1,3.724898E-2,-1.960572E-2,4.4564116E-3,5.3176183E-2],"categories":[],"categories_nodes":[],"categories_segments":[],"categories_sizes":[],"default_left":[0,0,0,0,0,0,0,0,0,0,0],"id":103,"left_children":[1,3,-1,-1,5,7,9,-1,-1,-1,-1],"loss_changes":[2.6636448E0,8.4254384E-1,0E0,0E0,5.9875E-1,9.44995E-1,2.7273917E-1,0E0,0E0,0E0,0E0],"parents":[2147483647,0,0,1,1,4,4,5,5,6,6],"right_children":[2,4,-1,-1,6,8,10,-1,-1,-1,-1],"split_conditions":[5.16129E-1,3.655914E-1,-3.7059117E-2,-2.5357801E-2,7.1E1,4.9066E-1,7.3255813E-1,3.724898E-2,-1.960572E-2,4.4564116E-3,5.3176183E-2],"split_indices":[2,2,0,0,0,7,3,0,0,0,0],"split_type":[0,0,0,0,0,0,0,0,0,0,0],"sum_hessian":[1.917963E1,1.2444844E1,6.734787E0,1.3411125E0,1.1103731E1,5.5827665E0,5.520965E0,2.5731647E0,3.0096018E0,1.0750542E0,4.445911E0],"tree_param":{"num_deleted":"0","num_feature":"10","num_nodes":"11","size_leaf_vector":"1"}},{"base_weights":[9.722825E-2,-2.762815E-1,8.768977E-2,-3.3532813E-2,1.66956E-2],"categories":[],"categories_nodes":[],"categories_segments":[],"categories_sizes":[],"default_left":[0,0,0,0,0],"id":104,"left_children":[1,3,-1,-1,-1],"loss_changes":[2.9334054E0,4.9841323E-1,0E0,0E0,0E0],"parents":[2147483647,0,0,1,1],"right_children":[2,4,-1,-1,-1],"split_conditions":[6E0,6.111111E-1,8.768977E-2,-3.3532813E-2,1.66956E-2],"split_indices":[1,4,0,0,0],"split_type":[0,0,0,0,0],"sum_hessian":[6.050632E0,4.9304385E0,1.1201936E0,3.9132643E0,1.0171742E0],"tree_param":{"num_deleted":"0","num_feature":"10","num_nodes":"5","size_leaf_vector":"1"}},{"base_weights":[-1.1252588E-1,1.9461881E-2,-2.613307E-2],"categories":[],"categories_nodes":[],"categories_segments":[],"categories_sizes":[],"default_left":[0,0,0],"id":105,"left_children":[1,-1,-1],"loss_changes":[3.6946687E-1,0E0,0E0],"parents":[2147483647,0,0],"right_children":[2,-1,-1],"split_conditions":[4.820144E-1,1.9461881E-2,-2.613307E-2],"split_indices":[2,0,0],"split_type":[0,0,0],"sum_hessian":[2.8062525E0,1.0032476E0,1.8030047E0],"tree_param":{"num_deleted":"0","num_feature":"10","num_nodes":"3","size_leaf_vector":"1"}},{"base_weights":[-3.7449058E-3,-2.1525124E-1,3.714637E-1,-4.1652012E-1,5.609207E-2,5.335301E-2,-1.8422712E-2,-3.8751595E-2,-1.0001677E-1,2.5159064E-1,-3.0678775E-2,3.424501E-1,-3.4867145E-2,1.2870165E-2,-2.3939926E-2,3.3709515E-2,-2.5493562E-2,2.014909E-3,4.150798E-2],"categories":[],"categories_nodes":[],"categories_segments":[],"categories_sizes":[],"default_left":[0,0,0,0,0,0,0,0,0,0,0,0,0,0,0,0,0,0,0],"id":106,"left_children":[1,3,5,7,9,-1,11,-1,13,15,-1,17,-1,-1,-1,-1,-1,-1,-1],"loss_changes":[2.3055432E0,1.0374064E0,1.2191156E0,1.8311596E-1,8.517517E-1,0E0,9.761822E-1,0E0,2.1258238E-1,7.8170437E-1,0E0,1.830473E-1,0E0,0E0,0E0,0E0,0E0,0E0,0E0],"parents":[2147483647,0,0,1,1,2,2,3,3,4,4,6,6,8,8,9,9,11,11],"right_children":[2,4,6,8,10,-1,12,-1,14,16,-1,18,-1,-1,-1,-1,-1,-1,-1],"split_conditions":[1.3701692E0,2.2857143E-1,3.7037E-1,1.3882889E0,1.8583333E-1,5.335301E-2,1.9718063E-1,-3.8751595E-2,1.5561193E-1,6.282E-1,-3.0678775E-2,1.955225E-1,-3.4867145E-2,1.2870165E-2,-2.3939926E-2,3.3709515E-2,-2.5493562E-2,2.014909E-3,4.150798E-2],"split_indices":[6,4,7,7,9,0,8,0,8,7,0,8,0,0,0,0,0,0,0],